digraph Tree {
node [shape=box, style="filled, rounded", color="black", fontname="helvetica"] ;
edge [fontname="helvetica"] ;
0 [label="43 <= 7.5\nentropy = 3.321\nsamples = 3934\nvalue = [391, 394, 380, 417, 380, 365, 389, 414, 404, 400]\nclass = 3", fillcolor="#ffffff"] ;
1 [label="44 <= 3.5\nentropy = 2.865\nsamples = 2174\nvalue = [5, 266, 254, 407, 118, 356, 1, 302, 67, 398]\nclass = 3", fillcolor="#fefffe"] ;
0 -> 1 [labeldistance=2.5, labelangle=45, headlabel="True"] ;
2 [label="22 <= 4.5\nentropy = 2.21\nsamples = 1192\nvalue = [4, 90, 23, 377, 33, 275, 0, 21, 1, 368]\nclass = 3", fillcolor="#fdfffd"] ;
1 -> 2 ;
3 [label="21 <= 8.5\nentropy = 1.427\nsamples = 387\nvalue = [0, 24, 4, 87, 12, 256, 0, 3, 0, 1]\nclass = 5", fillcolor="#8fc8f0"] ;
2 -> 3 ;
4 [label="6 <= 1.5\nentropy = 0.646\nsamples = 265\nvalue = [0, 8, 0, 5, 10, 239, 0, 3, 0, 0]\nclass = 5", fillcolor="#4da7e8"] ;
3 -> 4 ;
5 [label="64 <= 1.5\nentropy = 1.95\nsamples = 26\nvalue = [0, 8, 0, 4, 8, 6, 0, 0, 0, 0]\nclass = 1", fillcolor="#ffffff"] ;
4 -> 5 ;
6 [label="59 <= 3.5\nentropy = 1.53\nsamples = 18\nvalue = [0, 0, 0, 4, 8, 6, 0, 0, 0, 0]\nclass = 4", fillcolor="#defbf5"] ;
5 -> 6 ;
7 [label="entropy = 0.0\nsamples = 8\nvalue = [0, 0, 0, 0, 8, 0, 0, 0, 0, 0]\nclass = 4", fillcolor="#39e5c5"] ;
6 -> 7 ;
8 [label="46 <= 10.0\nentropy = 0.971\nsamples = 10\nvalue = [0, 0, 0, 4, 0, 6, 0, 0, 0, 0]\nclass = 5", fillcolor="#bddef6"] ;
6 -> 8 ;
9 [label="entropy = 0.0\nsamples = 6\nvalue = [0, 0, 0, 0, 0, 6, 0, 0, 0, 0]\nclass = 5", fillcolor="#399de5"] ;
8 -> 9 ;
10 [label="entropy = 0.0\nsamples = 4\nvalue = [0, 0, 0, 4, 0, 0, 0, 0, 0, 0]\nclass = 3", fillcolor="#39e55e"] ;
8 -> 10 ;
11 [label="entropy = 0.0\nsamples = 8\nvalue = [0, 8, 0, 0, 0, 0, 0, 0, 0, 0]\nclass = 1", fillcolor="#e2e539"] ;
5 -> 11 ;
12 [label="24 <= 0.5\nentropy = 0.206\nsamples = 239\nvalue = [0, 0, 0, 1, 2, 233, 0, 3, 0, 0]\nclass = 5", fillcolor="#3e9fe6"] ;
4 -> 12 ;
13 [label="19 <= 3.5\nentropy = 0.04\nsamples = 234\nvalue = [0, 0, 0, 1, 0, 233, 0, 0, 0, 0]\nclass = 5", fillcolor="#3a9de5"] ;
12 -> 13 ;
14 [label="entropy = 0.0\nsamples = 1\nvalue = [0, 0, 0, 1, 0, 0, 0, 0, 0, 0]\nclass = 3", fillcolor="#39e55e"] ;
13 -> 14 ;
15 [label="entropy = 0.0\nsamples = 233\nvalue = [0, 0, 0, 0, 0, 233, 0, 0, 0, 0]\nclass = 5", fillcolor="#399de5"] ;
13 -> 15 ;
16 [label="47 <= 1.0\nentropy = 0.971\nsamples = 5\nvalue = [0, 0, 0, 0, 2, 0, 0, 3, 0, 0]\nclass = 7", fillcolor="#e0bdf6"] ;
12 -> 16 ;
17 [label="entropy = 0.0\nsamples = 3\nvalue = [0, 0, 0, 0, 0, 0, 0, 3, 0, 0]\nclass = 7", fillcolor="#a339e5"] ;
16 -> 17 ;
18 [label="entropy = 0.0\nsamples = 2\nvalue = [0, 0, 0, 0, 2, 0, 0, 0, 0, 0]\nclass = 4", fillcolor="#39e5c5"] ;
16 -> 18 ;
19 [label="20 <= 13.5\nentropy = 1.482\nsamples = 122\nvalue = [0, 16, 4, 82, 2, 17, 0, 0, 0, 1]\nclass = 3", fillcolor="#84ef9b"] ;
3 -> 19 ;
20 [label="46 <= 6.0\nentropy = 0.64\nsamples = 84\nvalue = [0, 1, 4, 75, 0, 4, 0, 0, 0, 0]\nclass = 3", fillcolor="#4fe870"] ;
19 -> 20 ;
21 [label="28 <= 7.0\nentropy = 1.75\nsamples = 8\nvalue = [0, 1, 4, 2, 0, 1, 0, 0, 0, 0]\nclass = 2", fillcolor="#d3f6bd"] ;
20 -> 21 ;
22 [label="entropy = 0.0\nsamples = 4\nvalue = [0, 0, 4, 0, 0, 0, 0, 0, 0, 0]\nclass = 2", fillcolor="#7be539"] ;
21 -> 22 ;
23 [label="27 <= 2.5\nentropy = 1.5\nsamples = 4\nvalue = [0, 1, 0, 2, 0, 1, 0, 0, 0, 0]\nclass = 3", fillcolor="#bdf6c9"] ;
21 -> 23 ;
24 [label="entropy = 0.0\nsamples = 2\nvalue = [0, 0, 0, 2, 0, 0, 0, 0, 0, 0]\nclass = 3", fillcolor="#39e55e"] ;
23 -> 24 ;
25 [label="29 <= 13.0\nentropy = 1.0\nsamples = 2\nvalue = [0, 1, 0, 0, 0, 1, 0, 0, 0, 0]\nclass = 1", fillcolor="#ffffff"] ;
23 -> 25 ;
26 [label="entropy = 0.0\nsamples = 1\nvalue = [0, 0, 0, 0, 0, 1, 0, 0, 0, 0]\nclass = 5", fillcolor="#399de5"] ;
25 -> 26 ;
27 [label="entropy = 0.0\nsamples = 1\nvalue = [0, 1, 0, 0, 0, 0, 0, 0, 0, 0]\nclass = 1", fillcolor="#e2e539"] ;
25 -> 27 ;
28 [label="19 <= 14.0\nentropy = 0.24\nsamples = 76\nvalue = [0, 0, 0, 73, 0, 3, 0, 0, 0, 0]\nclass = 3", fillcolor="#41e665"] ;
20 -> 28 ;
29 [label="entropy = 0.0\nsamples = 72\nvalue = [0, 0, 0, 72, 0, 0, 0, 0, 0, 0]\nclass = 3", fillcolor="#39e55e"] ;
28 -> 29 ;
30 [label="12 <= 10.5\nentropy = 0.811\nsamples = 4\nvalue = [0, 0, 0, 1, 0, 3, 0, 0, 0, 0]\nclass = 5", fillcolor="#7bbeee"] ;
28 -> 30 ;
31 [label="entropy = 0.0\nsamples = 1\nvalue = [0, 0, 0, 1, 0, 0, 0, 0, 0, 0]\nclass = 3", fillcolor="#39e55e"] ;
30 -> 31 ;
32 [label="entropy = 0.0\nsamples = 3\nvalue = [0, 0, 0, 0, 0, 3, 0, 0, 0, 0]\nclass = 5", fillcolor="#399de5"] ;
30 -> 32 ;
33 [label="6 <= 0.5\nentropy = 1.87\nsamples = 38\nvalue = [0, 15, 0, 7, 2, 13, 0, 0, 0, 1]\nclass = 1", fillcolor="#fdfdef"] ;
19 -> 33 ;
34 [label="54 <= 10.5\nentropy = 0.353\nsamples = 15\nvalue = [0, 14, 0, 0, 0, 0, 0, 0, 0, 1]\nclass = 1", fillcolor="#e4e747"] ;
33 -> 34 ;
35 [label="entropy = 0.0\nsamples = 1\nvalue = [0, 0, 0, 0, 0, 0, 0, 0, 0, 1]\nclass = 9", fillcolor="#e53958"] ;
34 -> 35 ;
36 [label="entropy = 0.0\nsamples = 14\nvalue = [0, 14, 0, 0, 0, 0, 0, 0, 0, 0]\nclass = 1", fillcolor="#e2e539"] ;
34 -> 36 ;
37 [label="13 <= 15.5\nentropy = 1.491\nsamples = 23\nvalue = [0, 1, 0, 7, 2, 13, 0, 0, 0, 0]\nclass = 5", fillcolor="#b5daf5"] ;
33 -> 37 ;
38 [label="59 <= 2.5\nentropy = 0.371\nsamples = 14\nvalue = [0, 1, 0, 0, 0, 13, 0, 0, 0, 0]\nclass = 5", fillcolor="#48a5e7"] ;
37 -> 38 ;
39 [label="entropy = 0.0\nsamples = 1\nvalue = [0, 1, 0, 0, 0, 0, 0, 0, 0, 0]\nclass = 1", fillcolor="#e2e539"] ;
38 -> 39 ;
40 [label="entropy = 0.0\nsamples = 13\nvalue = [0, 0, 0, 0, 0, 13, 0, 0, 0, 0]\nclass = 5", fillcolor="#399de5"] ;
38 -> 40 ;
41 [label="4 <= 6.0\nentropy = 0.764\nsamples = 9\nvalue = [0, 0, 0, 7, 2, 0, 0, 0, 0, 0]\nclass = 3", fillcolor="#72ec8c"] ;
37 -> 41 ;
42 [label="entropy = 0.0\nsamples = 2\nvalue = [0, 0, 0, 0, 2, 0, 0, 0, 0, 0]\nclass = 4", fillcolor="#39e5c5"] ;
41 -> 42 ;
43 [label="entropy = 0.0\nsamples = 7\nvalue = [0, 0, 0, 7, 0, 0, 0, 0, 0, 0]\nclass = 3", fillcolor="#39e55e"] ;
41 -> 43 ;
44 [label="27 <= 5.5\nentropy = 1.908\nsamples = 805\nvalue = [4, 66, 19, 290, 21, 19, 0, 18, 1, 367]\nclass = 9", fillcolor="#fbe1e6"] ;
2 -> 44 ;
45 [label="31 <= 2.5\nentropy = 1.281\nsamples = 382\nvalue = [0, 5, 15, 269, 0, 2, 0, 11, 0, 80]\nclass = 3", fillcolor="#83ef9a"] ;
44 -> 45 ;
46 [label="20 <= 8.5\nentropy = 0.723\nsamples = 303\nvalue = [0, 2, 10, 265, 0, 1, 0, 1, 0, 24]\nclass = 3", fillcolor="#54e974"] ;
45 -> 46 ;
47 [label="64 <= 0.5\nentropy = 0.362\nsamples = 269\nvalue = [0, 0, 7, 255, 0, 0, 0, 1, 0, 6]\nclass = 3", fillcolor="#44e667"] ;
46 -> 47 ;
48 [label="19 <= 10.5\nentropy = 0.173\nsamples = 260\nvalue = [0, 0, 0, 254, 0, 0, 0, 1, 0, 5]\nclass = 3", fillcolor="#3ee662"] ;
47 -> 48 ;
49 [label="34 <= 3.5\nentropy = 0.039\nsamples = 237\nvalue = [0, 0, 0, 236, 0, 0, 0, 1, 0, 0]\nclass = 3", fillcolor="#3ae55f"] ;
48 -> 49 ;
50 [label="entropy = 0.0\nsamples = 236\nvalue = [0, 0, 0, 236, 0, 0, 0, 0, 0, 0]\nclass = 3", fillcolor="#39e55e"] ;
49 -> 50 ;
51 [label="entropy = 0.0\nsamples = 1\nvalue = [0, 0, 0, 0, 0, 0, 0, 1, 0, 0]\nclass = 7", fillcolor="#a339e5"] ;
49 -> 51 ;
52 [label="37 <= 7.5\nentropy = 0.755\nsamples = 23\nvalue = [0, 0, 0, 18, 0, 0, 0, 0, 0, 5]\nclass = 3", fillcolor="#70ec8b"] ;
48 -> 52 ;
53 [label="entropy = 0.0\nsamples = 4\nvalue = [0, 0, 0, 0, 0, 0, 0, 0, 0, 4]\nclass = 9", fillcolor="#e53958"] ;
52 -> 53 ;
54 [label="14 <= 5.5\nentropy = 0.297\nsamples = 19\nvalue = [0, 0, 0, 18, 0, 0, 0, 0, 0, 1]\nclass = 3", fillcolor="#44e667"] ;
52 -> 54 ;
55 [label="entropy = 0.0\nsamples = 1\nvalue = [0, 0, 0, 0, 0, 0, 0, 0, 0, 1]\nclass = 9", fillcolor="#e53958"] ;
54 -> 55 ;
56 [label="entropy = 0.0\nsamples = 18\nvalue = [0, 0, 0, 18, 0, 0, 0, 0, 0, 0]\nclass = 3", fillcolor="#39e55e"] ;
54 -> 56 ;
57 [label="45 <= 5.5\nentropy = 0.986\nsamples = 9\nvalue = [0, 0, 7, 1, 0, 0, 0, 0, 0, 1]\nclass = 2", fillcolor="#9cec6a"] ;
47 -> 57 ;
58 [label="37 <= 9.5\nentropy = 1.0\nsamples = 2\nvalue = [0, 0, 0, 1, 0, 0, 0, 0, 0, 1]\nclass = 3", fillcolor="#ffffff"] ;
57 -> 58 ;
59 [label="entropy = 0.0\nsamples = 1\nvalue = [0, 0, 0, 0, 0, 0, 0, 0, 0, 1]\nclass = 9", fillcolor="#e53958"] ;
58 -> 59 ;
60 [label="entropy = 0.0\nsamples = 1\nvalue = [0, 0, 0, 1, 0, 0, 0, 0, 0, 0]\nclass = 3", fillcolor="#39e55e"] ;
58 -> 60 ;
61 [label="entropy = 0.0\nsamples = 7\nvalue = [0, 0, 7, 0, 0, 0, 0, 0, 0, 0]\nclass = 2", fillcolor="#7be539"] ;
57 -> 61 ;
62 [label="36 <= 0.5\nentropy = 1.704\nsamples = 34\nvalue = [0, 2, 3, 10, 0, 1, 0, 0, 0, 18]\nclass = 9", fillcolor="#f6bdc7"] ;
46 -> 62 ;
63 [label="64 <= 3.0\nentropy = 1.259\nsamples = 24\nvalue = [0, 1, 3, 1, 0, 1, 0, 0, 0, 18]\nclass = 9", fillcolor="#ec7288"] ;
62 -> 63 ;
64 [label="4 <= 5.0\nentropy = 0.818\nsamples = 21\nvalue = [0, 1, 0, 1, 0, 1, 0, 0, 0, 18]\nclass = 9", fillcolor="#e95771"] ;
63 -> 64 ;
65 [label="entropy = 0.0\nsamples = 1\nvalue = [0, 1, 0, 0, 0, 0, 0, 0, 0, 0]\nclass = 1", fillcolor="#e2e539"] ;
64 -> 65 ;
66 [label="29 <= 1.5\nentropy = 0.569\nsamples = 20\nvalue = [0, 0, 0, 1, 0, 1, 0, 0, 0, 18]\nclass = 9", fillcolor="#e84e6a"] ;
64 -> 66 ;
67 [label="entropy = 0.0\nsamples = 1\nvalue = [0, 0, 0, 0, 0, 1, 0, 0, 0, 0]\nclass = 5", fillcolor="#399de5"] ;
66 -> 67 ;
68 [label="43 <= 5.5\nentropy = 0.297\nsamples = 19\nvalue = [0, 0, 0, 1, 0, 0, 0, 0, 0, 18]\nclass = 9", fillcolor="#e64461"] ;
66 -> 68 ;
69 [label="entropy = 0.0\nsamples = 18\nvalue = [0, 0, 0, 0, 0, 0, 0, 0, 0, 18]\nclass = 9", fillcolor="#e53958"] ;
68 -> 69 ;
70 [label="entropy = 0.0\nsamples = 1\nvalue = [0, 0, 0, 1, 0, 0, 0, 0, 0, 0]\nclass = 3", fillcolor="#39e55e"] ;
68 -> 70 ;
71 [label="entropy = 0.0\nsamples = 3\nvalue = [0, 0, 3, 0, 0, 0, 0, 0, 0, 0]\nclass = 2", fillcolor="#7be539"] ;
63 -> 71 ;
72 [label="60 <= 12.0\nentropy = 0.469\nsamples = 10\nvalue = [0, 1, 0, 9, 0, 0, 0, 0, 0, 0]\nclass = 3", fillcolor="#4fe870"] ;
62 -> 72 ;
73 [label="entropy = 0.0\nsamples = 1\nvalue = [0, 1, 0, 0, 0, 0, 0, 0, 0, 0]\nclass = 1", fillcolor="#e2e539"] ;
72 -> 73 ;
74 [label="entropy = 0.0\nsamples = 9\nvalue = [0, 0, 0, 9, 0, 0, 0, 0, 0, 0]\nclass = 3", fillcolor="#39e55e"] ;
72 -> 74 ;
75 [label="37 <= 13.5\nentropy = 1.458\nsamples = 79\nvalue = [0, 3, 5, 4, 0, 1, 0, 10, 0, 56]\nclass = 9", fillcolor="#ee7b90"] ;
45 -> 75 ;
76 [label="28 <= 2.5\nentropy = 0.869\nsamples = 66\nvalue = [0, 3, 5, 1, 0, 1, 0, 0, 0, 56]\nclass = 9", fillcolor="#e95973"] ;
75 -> 76 ;
77 [label="21 <= 8.0\nentropy = 1.713\nsamples = 17\nvalue = [0, 3, 5, 0, 0, 1, 0, 0, 0, 8]\nclass = 9", fillcolor="#f8ced5"] ;
76 -> 77 ;
78 [label="11 <= 7.0\nentropy = 0.65\nsamples = 6\nvalue = [0, 1, 5, 0, 0, 0, 0, 0, 0, 0]\nclass = 2", fillcolor="#95ea61"] ;
77 -> 78 ;
79 [label="entropy = 0.0\nsamples = 1\nvalue = [0, 1, 0, 0, 0, 0, 0, 0, 0, 0]\nclass = 1", fillcolor="#e2e539"] ;
78 -> 79 ;
80 [label="entropy = 0.0\nsamples = 5\nvalue = [0, 0, 5, 0, 0, 0, 0, 0, 0, 0]\nclass = 2", fillcolor="#7be539"] ;
78 -> 80 ;
81 [label="26 <= 0.5\nentropy = 1.096\nsamples = 11\nvalue = [0, 2, 0, 0, 0, 1, 0, 0, 0, 8]\nclass = 9", fillcolor="#ee7b90"] ;
77 -> 81 ;
82 [label="46 <= 3.0\nentropy = 0.503\nsamples = 9\nvalue = [0, 0, 0, 0, 0, 1, 0, 0, 0, 8]\nclass = 9", fillcolor="#e8526d"] ;
81 -> 82 ;
83 [label="entropy = 0.0\nsamples = 1\nvalue = [0, 0, 0, 0, 0, 1, 0, 0, 0, 0]\nclass = 5", fillcolor="#399de5"] ;
82 -> 83 ;
84 [label="entropy = 0.0\nsamples = 8\nvalue = [0, 0, 0, 0, 0, 0, 0, 0, 0, 8]\nclass = 9", fillcolor="#e53958"] ;
82 -> 84 ;
85 [label="entropy = 0.0\nsamples = 2\nvalue = [0, 2, 0, 0, 0, 0, 0, 0, 0, 0]\nclass = 1", fillcolor="#e2e539"] ;
81 -> 85 ;
86 [label="50 <= 6.5\nentropy = 0.144\nsamples = 49\nvalue = [0, 0, 0, 1, 0, 0, 0, 0, 0, 48]\nclass = 9", fillcolor="#e63d5b"] ;
76 -> 86 ;
87 [label="entropy = 0.0\nsamples = 47\nvalue = [0, 0, 0, 0, 0, 0, 0, 0, 0, 47]\nclass = 9", fillcolor="#e53958"] ;
86 -> 87 ;
88 [label="46 <= 9.5\nentropy = 1.0\nsamples = 2\nvalue = [0, 0, 0, 1, 0, 0, 0, 0, 0, 1]\nclass = 3", fillcolor="#ffffff"] ;
86 -> 88 ;
89 [label="entropy = 0.0\nsamples = 1\nvalue = [0, 0, 0, 1, 0, 0, 0, 0, 0, 0]\nclass = 3", fillcolor="#39e55e"] ;
88 -> 89 ;
90 [label="entropy = 0.0\nsamples = 1\nvalue = [0, 0, 0, 0, 0, 0, 0, 0, 0, 1]\nclass = 9", fillcolor="#e53958"] ;
88 -> 90 ;
91 [label="6 <= 9.5\nentropy = 0.779\nsamples = 13\nvalue = [0, 0, 0, 3, 0, 0, 0, 10, 0, 0]\nclass = 7", fillcolor="#bf74ed"] ;
75 -> 91 ;
92 [label="entropy = 0.0\nsamples = 3\nvalue = [0, 0, 0, 3, 0, 0, 0, 0, 0, 0]\nclass = 3", fillcolor="#39e55e"] ;
91 -> 92 ;
93 [label="entropy = 0.0\nsamples = 10\nvalue = [0, 0, 0, 0, 0, 0, 0, 10, 0, 0]\nclass = 7", fillcolor="#a339e5"] ;
91 -> 93 ;
94 [label="11 <= 7.5\nentropy = 1.645\nsamples = 423\nvalue = [4, 61, 4, 21, 21, 17, 0, 7, 1, 287]\nclass = 9", fillcolor="#ef8397"] ;
44 -> 94 ;
95 [label="21 <= 14.5\nentropy = 1.817\nsamples = 123\nvalue = [0, 61, 0, 2, 21, 1, 0, 4, 1, 33]\nclass = 1", fillcolor="#f6f7c1"] ;
94 -> 95 ;
96 [label="45 <= 10.5\nentropy = 1.865\nsamples = 65\nvalue = [0, 4, 0, 2, 21, 1, 0, 4, 1, 32]\nclass = 9", fillcolor="#f8ced5"] ;
95 -> 96 ;
97 [label="55 <= 1.5\nentropy = 1.341\nsamples = 40\nvalue = [0, 3, 0, 2, 5, 1, 0, 0, 0, 29]\nclass = 9", fillcolor="#ed778c"] ;
96 -> 97 ;
98 [label="6 <= 6.0\nentropy = 0.637\nsamples = 31\nvalue = [0, 0, 0, 0, 5, 0, 0, 0, 0, 26]\nclass = 9", fillcolor="#ea5f78"] ;
97 -> 98 ;
99 [label="entropy = 0.0\nsamples = 4\nvalue = [0, 0, 0, 0, 4, 0, 0, 0, 0, 0]\nclass = 4", fillcolor="#39e5c5"] ;
98 -> 99 ;
100 [label="54 <= 13.0\nentropy = 0.229\nsamples = 27\nvalue = [0, 0, 0, 0, 1, 0, 0, 0, 0, 26]\nclass = 9", fillcolor="#e6415e"] ;
98 -> 100 ;
101 [label="entropy = 0.0\nsamples = 25\nvalue = [0, 0, 0, 0, 0, 0, 0, 0, 0, 25]\nclass = 9", fillcolor="#e53958"] ;
100 -> 101 ;
102 [label="45 <= 3.5\nentropy = 1.0\nsamples = 2\nvalue = [0, 0, 0, 0, 1, 0, 0, 0, 0, 1]\nclass = 4", fillcolor="#ffffff"] ;
100 -> 102 ;
103 [label="entropy = 0.0\nsamples = 1\nvalue = [0, 0, 0, 0, 0, 0, 0, 0, 0, 1]\nclass = 9", fillcolor="#e53958"] ;
102 -> 103 ;
104 [label="entropy = 0.0\nsamples = 1\nvalue = [0, 0, 0, 0, 1, 0, 0, 0, 0, 0]\nclass = 4", fillcolor="#39e5c5"] ;
102 -> 104 ;
105 [label="14 <= 14.0\nentropy = 1.891\nsamples = 9\nvalue = [0, 3, 0, 2, 0, 1, 0, 0, 0, 3]\nclass = 1", fillcolor="#ffffff"] ;
97 -> 105 ;
106 [label="36 <= 2.5\nentropy = 0.811\nsamples = 4\nvalue = [0, 0, 0, 0, 0, 1, 0, 0, 0, 3]\nclass = 9", fillcolor="#ee7b90"] ;
105 -> 106 ;
107 [label="entropy = 0.0\nsamples = 1\nvalue = [0, 0, 0, 0, 0, 1, 0, 0, 0, 0]\nclass = 5", fillcolor="#399de5"] ;
106 -> 107 ;
108 [label="entropy = 0.0\nsamples = 3\nvalue = [0, 0, 0, 0, 0, 0, 0, 0, 0, 3]\nclass = 9", fillcolor="#e53958"] ;
106 -> 108 ;
109 [label="61 <= 9.5\nentropy = 0.971\nsamples = 5\nvalue = [0, 3, 0, 2, 0, 0, 0, 0, 0, 0]\nclass = 1", fillcolor="#f5f6bd"] ;
105 -> 109 ;
110 [label="entropy = 0.0\nsamples = 3\nvalue = [0, 3, 0, 0, 0, 0, 0, 0, 0, 0]\nclass = 1", fillcolor="#e2e539"] ;
109 -> 110 ;
111 [label="entropy = 0.0\nsamples = 2\nvalue = [0, 0, 0, 2, 0, 0, 0, 0, 0, 0]\nclass = 3", fillcolor="#39e55e"] ;
109 -> 111 ;
112 [label="31 <= 3.5\nentropy = 1.574\nsamples = 25\nvalue = [0, 1, 0, 0, 16, 0, 0, 4, 1, 3]\nclass = 4", fillcolor="#8ef0de"] ;
96 -> 112 ;
113 [label="29 <= 10.5\nentropy = 1.842\nsamples = 7\nvalue = [0, 1, 0, 0, 0, 0, 0, 2, 1, 3]\nclass = 9", fillcolor="#fad7de"] ;
112 -> 113 ;
114 [label="34 <= 2.0\nentropy = 1.5\nsamples = 4\nvalue = [0, 1, 0, 0, 0, 0, 0, 2, 1, 0]\nclass = 7", fillcolor="#e0bdf6"] ;
113 -> 114 ;
115 [label="14 <= 13.0\nentropy = 1.0\nsamples = 2\nvalue = [0, 1, 0, 0, 0, 0, 0, 0, 1, 0]\nclass = 1", fillcolor="#ffffff"] ;
114 -> 115 ;
116 [label="entropy = 0.0\nsamples = 1\nvalue = [0, 0, 0, 0, 0, 0, 0, 0, 1, 0]\nclass = 8", fillcolor="#e539c0"] ;
115 -> 116 ;
117 [label="entropy = 0.0\nsamples = 1\nvalue = [0, 1, 0, 0, 0, 0, 0, 0, 0, 0]\nclass = 1", fillcolor="#e2e539"] ;
115 -> 117 ;
118 [label="entropy = 0.0\nsamples = 2\nvalue = [0, 0, 0, 0, 0, 0, 0, 2, 0, 0]\nclass = 7", fillcolor="#a339e5"] ;
114 -> 118 ;
119 [label="entropy = 0.0\nsamples = 3\nvalue = [0, 0, 0, 0, 0, 0, 0, 0, 0, 3]\nclass = 9", fillcolor="#e53958"] ;
113 -> 119 ;
120 [label="52 <= 7.5\nentropy = 0.503\nsamples = 18\nvalue = [0, 0, 0, 0, 16, 0, 0, 2, 0, 0]\nclass = 4", fillcolor="#52e8cc"] ;
112 -> 120 ;
121 [label="entropy = 0.0\nsamples = 16\nvalue = [0, 0, 0, 0, 16, 0, 0, 0, 0, 0]\nclass = 4", fillcolor="#39e5c5"] ;
120 -> 121 ;
122 [label="entropy = 0.0\nsamples = 2\nvalue = [0, 0, 0, 0, 0, 0, 0, 2, 0, 0]\nclass = 7", fillcolor="#a339e5"] ;
120 -> 122 ;
123 [label="62 <= 2.0\nentropy = 0.126\nsamples = 58\nvalue = [0, 57, 0, 0, 0, 0, 0, 0, 0, 1]\nclass = 1", fillcolor="#e3e53c"] ;
95 -> 123 ;
124 [label="entropy = 0.0\nsamples = 1\nvalue = [0, 0, 0, 0, 0, 0, 0, 0, 0, 1]\nclass = 9", fillcolor="#e53958"] ;
123 -> 124 ;
125 [label="entropy = 0.0\nsamples = 57\nvalue = [0, 57, 0, 0, 0, 0, 0, 0, 0, 0]\nclass = 1", fillcolor="#e2e539"] ;
123 -> 125 ;
126 [label="19 <= 3.5\nentropy = 0.914\nsamples = 300\nvalue = [4, 0, 4, 19, 0, 16, 0, 3, 0, 254]\nclass = 9", fillcolor="#e95973"] ;
94 -> 126 ;
127 [label="entropy = 0.0\nsamples = 16\nvalue = [0, 0, 0, 16, 0, 0, 0, 0, 0, 0]\nclass = 3", fillcolor="#39e55e"] ;
126 -> 127 ;
128 [label="22 <= 8.5\nentropy = 0.69\nsamples = 284\nvalue = [4, 0, 4, 3, 0, 16, 0, 3, 0, 254]\nclass = 9", fillcolor="#e84f6b"] ;
126 -> 128 ;
129 [label="55 <= 5.5\nentropy = 1.685\nsamples = 23\nvalue = [0, 0, 0, 3, 0, 12, 0, 2, 0, 6]\nclass = 5", fillcolor="#b9dcf6"] ;
128 -> 129 ;
130 [label="21 <= 0.5\nentropy = 0.906\nsamples = 15\nvalue = [0, 0, 0, 0, 0, 12, 0, 2, 0, 1]\nclass = 5", fillcolor="#67b4eb"] ;
129 -> 130 ;
131 [label="8 <= 2.5\nentropy = 0.918\nsamples = 3\nvalue = [0, 0, 0, 0, 0, 0, 0, 2, 0, 1]\nclass = 7", fillcolor="#d19cf2"] ;
130 -> 131 ;
132 [label="entropy = 0.0\nsamples = 1\nvalue = [0, 0, 0, 0, 0, 0, 0, 0, 0, 1]\nclass = 9", fillcolor="#e53958"] ;
131 -> 132 ;
133 [label="entropy = 0.0\nsamples = 2\nvalue = [0, 0, 0, 0, 0, 0, 0, 2, 0, 0]\nclass = 7", fillcolor="#a339e5"] ;
131 -> 133 ;
134 [label="entropy = 0.0\nsamples = 12\nvalue = [0, 0, 0, 0, 0, 12, 0, 0, 0, 0]\nclass = 5", fillcolor="#399de5"] ;
130 -> 134 ;
135 [label="30 <= 6.5\nentropy = 0.954\nsamples = 8\nvalue = [0, 0, 0, 3, 0, 0, 0, 0, 0, 5]\nclass = 9", fillcolor="#f5b0bc"] ;
129 -> 135 ;
136 [label="entropy = 0.0\nsamples = 3\nvalue = [0, 0, 0, 3, 0, 0, 0, 0, 0, 0]\nclass = 3", fillcolor="#39e55e"] ;
135 -> 136 ;
137 [label="entropy = 0.0\nsamples = 5\nvalue = [0, 0, 0, 0, 0, 0, 0, 0, 0, 5]\nclass = 9", fillcolor="#e53958"] ;
135 -> 137 ;
138 [label="28 <= 0.5\nentropy = 0.378\nsamples = 261\nvalue = [4, 0, 4, 0, 0, 4, 0, 1, 0, 248]\nclass = 9", fillcolor="#e64360"] ;
128 -> 138 ;
139 [label="62 <= 6.5\nentropy = 1.784\nsamples = 12\nvalue = [4, 0, 2, 0, 0, 0, 0, 1, 0, 5]\nclass = 9", fillcolor="#fce6ea"] ;
138 -> 139 ;
140 [label="35 <= 3.5\nentropy = 0.722\nsamples = 5\nvalue = [4, 0, 0, 0, 0, 0, 0, 1, 0, 0]\nclass = 0", fillcolor="#eca06a"] ;
139 -> 140 ;
141 [label="entropy = 0.0\nsamples = 1\nvalue = [0, 0, 0, 0, 0, 0, 0, 1, 0, 0]\nclass = 7", fillcolor="#a339e5"] ;
140 -> 141 ;
142 [label="entropy = 0.0\nsamples = 4\nvalue = [4, 0, 0, 0, 0, 0, 0, 0, 0, 0]\nclass = 0", fillcolor="#e58139"] ;
140 -> 142 ;
143 [label="36 <= 6.0\nentropy = 0.863\nsamples = 7\nvalue = [0, 0, 2, 0, 0, 0, 0, 0, 0, 5]\nclass = 9", fillcolor="#ef889b"] ;
139 -> 143 ;
144 [label="entropy = 0.0\nsamples = 2\nvalue = [0, 0, 2, 0, 0, 0, 0, 0, 0, 0]\nclass = 2", fillcolor="#7be539"] ;
143 -> 144 ;
145 [label="entropy = 0.0\nsamples = 5\nvalue = [0, 0, 0, 0, 0, 0, 0, 0, 0, 5]\nclass = 9", fillcolor="#e53958"] ;
143 -> 145 ;
146 [label="53 <= 11.5\nentropy = 0.186\nsamples = 249\nvalue = [0, 0, 2, 0, 0, 4, 0, 0, 0, 243]\nclass = 9", fillcolor="#e63e5c"] ;
138 -> 146 ;
147 [label="entropy = 0.0\nsamples = 182\nvalue = [0, 0, 0, 0, 0, 0, 0, 0, 0, 182]\nclass = 9", fillcolor="#e53958"] ;
146 -> 147 ;
148 [label="62 <= 11.5\nentropy = 0.517\nsamples = 67\nvalue = [0, 0, 2, 0, 0, 4, 0, 0, 0, 61]\nclass = 9", fillcolor="#e74c68"] ;
146 -> 148 ;
149 [label="22 <= 11.5\nentropy = 0.334\nsamples = 65\nvalue = [0, 0, 0, 0, 0, 4, 0, 0, 0, 61]\nclass = 9", fillcolor="#e74663"] ;
148 -> 149 ;
150 [label="21 <= 4.0\nentropy = 1.0\nsamples = 6\nvalue = [0, 0, 0, 0, 0, 3, 0, 0, 0, 3]\nclass = 5", fillcolor="#ffffff"] ;
149 -> 150 ;
151 [label="entropy = 0.0\nsamples = 3\nvalue = [0, 0, 0, 0, 0, 0, 0, 0, 0, 3]\nclass = 9", fillcolor="#e53958"] ;
150 -> 151 ;
152 [label="entropy = 0.0\nsamples = 3\nvalue = [0, 0, 0, 0, 0, 3, 0, 0, 0, 0]\nclass = 5", fillcolor="#399de5"] ;
150 -> 152 ;
153 [label="29 <= 5.5\nentropy = 0.124\nsamples = 59\nvalue = [0, 0, 0, 0, 0, 1, 0, 0, 0, 58]\nclass = 9", fillcolor="#e53c5b"] ;
149 -> 153 ;
154 [label="53 <= 15.5\nentropy = 1.0\nsamples = 2\nvalue = [0, 0, 0, 0, 0, 1, 0, 0, 0, 1]\nclass = 5", fillcolor="#ffffff"] ;
153 -> 154 ;
155 [label="entropy = 0.0\nsamples = 1\nvalue = [0, 0, 0, 0, 0, 1, 0, 0, 0, 0]\nclass = 5", fillcolor="#399de5"] ;
154 -> 155 ;
156 [label="entropy = 0.0\nsamples = 1\nvalue = [0, 0, 0, 0, 0, 0, 0, 0, 0, 1]\nclass = 9", fillcolor="#e53958"] ;
154 -> 156 ;
157 [label="entropy = 0.0\nsamples = 57\nvalue = [0, 0, 0, 0, 0, 0, 0, 0, 0, 57]\nclass = 9", fillcolor="#e53958"] ;
153 -> 157 ;
158 [label="entropy = 0.0\nsamples = 2\nvalue = [0, 0, 2, 0, 0, 0, 0, 0, 0, 0]\nclass = 2", fillcolor="#7be539"] ;
148 -> 158 ;
159 [label="62 <= 0.5\nentropy = 2.644\nsamples = 982\nvalue = [1, 176, 231, 30, 85, 81, 1, 281, 66, 30]\nclass = 7", fillcolor="#f9f2fd"] ;
1 -> 159 ;
160 [label="30 <= 2.5\nentropy = 1.864\nsamples = 467\nvalue = [0, 26, 3, 6, 67, 59, 0, 279, 6, 21]\nclass = 7", fillcolor="#ce96f1"] ;
159 -> 160 ;
161 [label="21 <= 4.0\nentropy = 1.482\nsamples = 87\nvalue = [0, 18, 0, 4, 0, 58, 0, 3, 2, 2]\nclass = 5", fillcolor="#8cc6f0"] ;
160 -> 161 ;
162 [label="entropy = 0.0\nsamples = 55\nvalue = [0, 0, 0, 0, 0, 55, 0, 0, 0, 0]\nclass = 5", fillcolor="#399de5"] ;
161 -> 162 ;
163 [label="59 <= 3.5\nentropy = 1.982\nsamples = 32\nvalue = [0, 18, 0, 4, 0, 3, 0, 3, 2, 2]\nclass = 1", fillcolor="#f0f29c"] ;
161 -> 163 ;
164 [label="entropy = 0.0\nsamples = 18\nvalue = [0, 18, 0, 0, 0, 0, 0, 0, 0, 0]\nclass = 1", fillcolor="#e2e539"] ;
163 -> 164 ;
165 [label="12 <= 9.5\nentropy = 2.271\nsamples = 14\nvalue = [0, 0, 0, 4, 0, 3, 0, 3, 2, 2]\nclass = 3", fillcolor="#edfdf0"] ;
163 -> 165 ;
166 [label="61 <= 0.5\nentropy = 0.985\nsamples = 7\nvalue = [0, 0, 0, 4, 0, 0, 0, 3, 0, 0]\nclass = 3", fillcolor="#cef8d7"] ;
165 -> 166 ;
167 [label="entropy = 0.0\nsamples = 3\nvalue = [0, 0, 0, 0, 0, 0, 0, 3, 0, 0]\nclass = 7", fillcolor="#a339e5"] ;
166 -> 167 ;
168 [label="entropy = 0.0\nsamples = 4\nvalue = [0, 0, 0, 4, 0, 0, 0, 0, 0, 0]\nclass = 3", fillcolor="#39e55e"] ;
166 -> 168 ;
169 [label="3 <= 12.0\nentropy = 1.557\nsamples = 7\nvalue = [0, 0, 0, 0, 0, 3, 0, 0, 2, 2]\nclass = 5", fillcolor="#d7ebfa"] ;
165 -> 169 ;
170 [label="10 <= 7.5\nentropy = 1.0\nsamples = 4\nvalue = [0, 0, 0, 0, 0, 0, 0, 0, 2, 2]\nclass = 8", fillcolor="#ffffff"] ;
169 -> 170 ;
171 [label="entropy = 0.0\nsamples = 2\nvalue = [0, 0, 0, 0, 0, 0, 0, 0, 2, 0]\nclass = 8", fillcolor="#e539c0"] ;
170 -> 171 ;
172 [label="entropy = 0.0\nsamples = 2\nvalue = [0, 0, 0, 0, 0, 0, 0, 0, 0, 2]\nclass = 9", fillcolor="#e53958"] ;
170 -> 172 ;
173 [label="entropy = 0.0\nsamples = 3\nvalue = [0, 0, 0, 0, 0, 3, 0, 0, 0, 0]\nclass = 5", fillcolor="#399de5"] ;
169 -> 173 ;
174 [label="6 <= 6.5\nentropy = 1.297\nsamples = 380\nvalue = [0, 8, 3, 2, 67, 1, 0, 276, 4, 19]\nclass = 7", fillcolor="#c27bee"] ;
160 -> 174 ;
175 [label="19 <= 7.5\nentropy = 1.8\nsamples = 123\nvalue = [0, 8, 3, 1, 67, 0, 0, 34, 3, 7]\nclass = 4", fillcolor="#b6f5e9"] ;
174 -> 175 ;
176 [label="53 <= 11.5\nentropy = 1.28\nsamples = 41\nvalue = [0, 5, 1, 1, 2, 0, 0, 31, 0, 1]\nclass = 7", fillcolor="#bd70ec"] ;
175 -> 176 ;
177 [label="entropy = 0.0\nsamples = 31\nvalue = [0, 0, 0, 0, 0, 0, 0, 31, 0, 0]\nclass = 7", fillcolor="#a339e5"] ;
176 -> 177 ;
178 [label="5 <= 11.5\nentropy = 1.961\nsamples = 10\nvalue = [0, 5, 1, 1, 2, 0, 0, 0, 0, 1]\nclass = 1", fillcolor="#f4f5b5"] ;
176 -> 178 ;
179 [label="18 <= 0.5\nentropy = 0.65\nsamples = 6\nvalue = [0, 5, 1, 0, 0, 0, 0, 0, 0, 0]\nclass = 1", fillcolor="#e8ea61"] ;
178 -> 179 ;
180 [label="entropy = 0.0\nsamples = 5\nvalue = [0, 5, 0, 0, 0, 0, 0, 0, 0, 0]\nclass = 1", fillcolor="#e2e539"] ;
179 -> 180 ;
181 [label="entropy = 0.0\nsamples = 1\nvalue = [0, 0, 1, 0, 0, 0, 0, 0, 0, 0]\nclass = 2", fillcolor="#7be539"] ;
179 -> 181 ;
182 [label="12 <= 13.5\nentropy = 1.5\nsamples = 4\nvalue = [0, 0, 0, 1, 2, 0, 0, 0, 0, 1]\nclass = 4", fillcolor="#bdf6ec"] ;
178 -> 182 ;
183 [label="entropy = 0.0\nsamples = 2\nvalue = [0, 0, 0, 0, 2, 0, 0, 0, 0, 0]\nclass = 4", fillcolor="#39e5c5"] ;
182 -> 183 ;
184 [label="46 <= 10.0\nentropy = 1.0\nsamples = 2\nvalue = [0, 0, 0, 1, 0, 0, 0, 0, 0, 1]\nclass = 3", fillcolor="#ffffff"] ;
182 -> 184 ;
185 [label="entropy = 0.0\nsamples = 1\nvalue = [0, 0, 0, 1, 0, 0, 0, 0, 0, 0]\nclass = 3", fillcolor="#39e55e"] ;
184 -> 185 ;
186 [label="entropy = 0.0\nsamples = 1\nvalue = [0, 0, 0, 0, 0, 0, 0, 0, 0, 1]\nclass = 9", fillcolor="#e53958"] ;
184 -> 186 ;
187 [label="13 <= 6.5\nentropy = 1.196\nsamples = 82\nvalue = [0, 3, 2, 0, 65, 0, 0, 3, 3, 6]\nclass = 4", fillcolor="#65ebd2"] ;
175 -> 187 ;
188 [label="37 <= 11.5\nentropy = 0.305\nsamples = 55\nvalue = [0, 0, 0, 0, 52, 0, 0, 0, 3, 0]\nclass = 4", fillcolor="#44e6c8"] ;
187 -> 188 ;
189 [label="3 <= 1.0\nentropy = 0.811\nsamples = 4\nvalue = [0, 0, 0, 0, 1, 0, 0, 0, 3, 0]\nclass = 8", fillcolor="#ee7bd5"] ;
188 -> 189 ;
190 [label="entropy = 0.0\nsamples = 1\nvalue = [0, 0, 0, 0, 1, 0, 0, 0, 0, 0]\nclass = 4", fillcolor="#39e5c5"] ;
189 -> 190 ;
191 [label="entropy = 0.0\nsamples = 3\nvalue = [0, 0, 0, 0, 0, 0, 0, 0, 3, 0]\nclass = 8", fillcolor="#e539c0"] ;
189 -> 191 ;
192 [label="entropy = 0.0\nsamples = 51\nvalue = [0, 0, 0, 0, 51, 0, 0, 0, 0, 0]\nclass = 4", fillcolor="#39e5c5"] ;
188 -> 192 ;
193 [label="59 <= 0.5\nentropy = 1.972\nsamples = 27\nvalue = [0, 3, 2, 0, 13, 0, 0, 3, 0, 6]\nclass = 4", fillcolor="#bdf6ec"] ;
187 -> 193 ;
194 [label="39 <= 0.5\nentropy = 0.696\nsamples = 16\nvalue = [0, 3, 0, 0, 13, 0, 0, 0, 0, 0]\nclass = 4", fillcolor="#67ebd2"] ;
193 -> 194 ;
195 [label="10 <= 0.5\nentropy = 0.811\nsamples = 4\nvalue = [0, 3, 0, 0, 1, 0, 0, 0, 0, 0]\nclass = 1", fillcolor="#ecee7b"] ;
194 -> 195 ;
196 [label="entropy = 0.0\nsamples = 3\nvalue = [0, 3, 0, 0, 0, 0, 0, 0, 0, 0]\nclass = 1", fillcolor="#e2e539"] ;
195 -> 196 ;
197 [label="entropy = 0.0\nsamples = 1\nvalue = [0, 0, 0, 0, 1, 0, 0, 0, 0, 0]\nclass = 4", fillcolor="#39e5c5"] ;
195 -> 197 ;
198 [label="entropy = 0.0\nsamples = 12\nvalue = [0, 0, 0, 0, 12, 0, 0, 0, 0, 0]\nclass = 4", fillcolor="#39e5c5"] ;
194 -> 198 ;
199 [label="39 <= 3.0\nentropy = 1.435\nsamples = 11\nvalue = [0, 0, 2, 0, 0, 0, 0, 3, 0, 6]\nclass = 9", fillcolor="#f5b5c0"] ;
193 -> 199 ;
200 [label="64 <= 2.0\nentropy = 0.811\nsamples = 8\nvalue = [0, 0, 2, 0, 0, 0, 0, 0, 0, 6]\nclass = 9", fillcolor="#ee7b90"] ;
199 -> 200 ;
201 [label="entropy = 0.0\nsamples = 6\nvalue = [0, 0, 0, 0, 0, 0, 0, 0, 0, 6]\nclass = 9", fillcolor="#e53958"] ;
200 -> 201 ;
202 [label="entropy = 0.0\nsamples = 2\nvalue = [0, 0, 2, 0, 0, 0, 0, 0, 0, 0]\nclass = 2", fillcolor="#7be539"] ;
200 -> 202 ;
203 [label="entropy = 0.0\nsamples = 3\nvalue = [0, 0, 0, 0, 0, 0, 0, 3, 0, 0]\nclass = 7", fillcolor="#a339e5"] ;
199 -> 203 ;
204 [label="19 <= 9.5\nentropy = 0.382\nsamples = 257\nvalue = [0, 0, 0, 1, 0, 1, 0, 242, 1, 12]\nclass = 7", fillcolor="#a945e7"] ;
174 -> 204 ;
205 [label="61 <= 11.5\nentropy = 0.043\nsamples = 216\nvalue = [0, 0, 0, 1, 0, 0, 0, 215, 0, 0]\nclass = 7", fillcolor="#a33ae5"] ;
204 -> 205 ;
206 [label="entropy = 0.0\nsamples = 214\nvalue = [0, 0, 0, 0, 0, 0, 0, 214, 0, 0]\nclass = 7", fillcolor="#a339e5"] ;
205 -> 206 ;
207 [label="31 <= 4.5\nentropy = 1.0\nsamples = 2\nvalue = [0, 0, 0, 1, 0, 0, 0, 1, 0, 0]\nclass = 3", fillcolor="#ffffff"] ;
205 -> 207 ;
208 [label="entropy = 0.0\nsamples = 1\nvalue = [0, 0, 0, 1, 0, 0, 0, 0, 0, 0]\nclass = 3", fillcolor="#39e55e"] ;
207 -> 208 ;
209 [label="entropy = 0.0\nsamples = 1\nvalue = [0, 0, 0, 0, 0, 0, 0, 1, 0, 0]\nclass = 7", fillcolor="#a339e5"] ;
207 -> 209 ;
210 [label="28 <= 8.5\nentropy = 1.177\nsamples = 41\nvalue = [0, 0, 0, 0, 0, 1, 0, 27, 1, 12]\nclass = 7", fillcolor="#cf99f2"] ;
204 -> 210 ;
211 [label="21 <= 15.5\nentropy = 0.229\nsamples = 27\nvalue = [0, 0, 0, 0, 0, 0, 0, 26, 0, 1]\nclass = 7", fillcolor="#a741e6"] ;
210 -> 211 ;
212 [label="entropy = 0.0\nsamples = 26\nvalue = [0, 0, 0, 0, 0, 0, 0, 26, 0, 0]\nclass = 7", fillcolor="#a339e5"] ;
211 -> 212 ;
213 [label="entropy = 0.0\nsamples = 1\nvalue = [0, 0, 0, 0, 0, 0, 0, 0, 0, 1]\nclass = 9", fillcolor="#e53958"] ;
211 -> 213 ;
214 [label="37 <= 12.0\nentropy = 1.089\nsamples = 14\nvalue = [0, 0, 0, 0, 0, 1, 0, 1, 1, 11]\nclass = 9", fillcolor="#eb677f"] ;
210 -> 214 ;
215 [label="28 <= 12.5\nentropy = 1.0\nsamples = 2\nvalue = [0, 0, 0, 0, 0, 0, 0, 1, 1, 0]\nclass = 7", fillcolor="#ffffff"] ;
214 -> 215 ;
216 [label="entropy = 0.0\nsamples = 1\nvalue = [0, 0, 0, 0, 0, 0, 0, 1, 0, 0]\nclass = 7", fillcolor="#a339e5"] ;
215 -> 216 ;
217 [label="entropy = 0.0\nsamples = 1\nvalue = [0, 0, 0, 0, 0, 0, 0, 0, 1, 0]\nclass = 8", fillcolor="#e539c0"] ;
215 -> 217 ;
218 [label="23 <= 1.5\nentropy = 0.414\nsamples = 12\nvalue = [0, 0, 0, 0, 0, 1, 0, 0, 0, 11]\nclass = 9", fillcolor="#e74b67"] ;
214 -> 218 ;
219 [label="entropy = 0.0\nsamples = 1\nvalue = [0, 0, 0, 0, 0, 1, 0, 0, 0, 0]\nclass = 5", fillcolor="#399de5"] ;
218 -> 219 ;
220 [label="entropy = 0.0\nsamples = 11\nvalue = [0, 0, 0, 0, 0, 0, 0, 0, 0, 11]\nclass = 9", fillcolor="#e53958"] ;
218 -> 220 ;
221 [label="11 <= 9.5\nentropy = 2.138\nsamples = 515\nvalue = [1, 150, 228, 24, 18, 22, 1, 2, 60, 9]\nclass = 2", fillcolor="#e3f9d5"] ;
159 -> 221 ;
222 [label="29 <= 11.5\nentropy = 1.17\nsamples = 162\nvalue = [0, 128, 2, 3, 18, 2, 1, 0, 7, 1]\nclass = 1", fillcolor="#e9eb68"] ;
221 -> 222 ;
223 [label="38 <= 12.0\nentropy = 2.044\nsamples = 37\nvalue = [0, 11, 1, 1, 18, 2, 1, 0, 2, 1]\nclass = 4", fillcolor="#caf8ef"] ;
222 -> 223 ;
224 [label="28 <= 15.5\nentropy = 1.614\nsamples = 17\nvalue = [0, 11, 0, 1, 0, 2, 1, 0, 2, 0]\nclass = 1", fillcolor="#eeef88"] ;
223 -> 224 ;
225 [label="30 <= 5.5\nentropy = 1.918\nsamples = 6\nvalue = [0, 0, 0, 1, 0, 2, 1, 0, 2, 0]\nclass = 5", fillcolor="#ffffff"] ;
224 -> 225 ;
226 [label="6 <= 6.5\nentropy = 0.918\nsamples = 3\nvalue = [0, 0, 0, 0, 0, 2, 1, 0, 0, 0]\nclass = 5", fillcolor="#9ccef2"] ;
225 -> 226 ;
227 [label="entropy = 0.0\nsamples = 1\nvalue = [0, 0, 0, 0, 0, 0, 1, 0, 0, 0]\nclass = 6", fillcolor="#3c39e5"] ;
226 -> 227 ;
228 [label="entropy = 0.0\nsamples = 2\nvalue = [0, 0, 0, 0, 0, 2, 0, 0, 0, 0]\nclass = 5", fillcolor="#399de5"] ;
226 -> 228 ;
229 [label="59 <= 3.5\nentropy = 0.918\nsamples = 3\nvalue = [0, 0, 0, 1, 0, 0, 0, 0, 2, 0]\nclass = 8", fillcolor="#f29ce0"] ;
225 -> 229 ;
230 [label="entropy = 0.0\nsamples = 2\nvalue = [0, 0, 0, 0, 0, 0, 0, 0, 2, 0]\nclass = 8", fillcolor="#e539c0"] ;
229 -> 230 ;
231 [label="entropy = 0.0\nsamples = 1\nvalue = [0, 0, 0, 1, 0, 0, 0, 0, 0, 0]\nclass = 3", fillcolor="#39e55e"] ;
229 -> 231 ;
232 [label="entropy = 0.0\nsamples = 11\nvalue = [0, 11, 0, 0, 0, 0, 0, 0, 0, 0]\nclass = 1", fillcolor="#e2e539"] ;
224 -> 232 ;
233 [label="14 <= 11.5\nentropy = 0.569\nsamples = 20\nvalue = [0, 0, 1, 0, 18, 0, 0, 0, 0, 1]\nclass = 4", fillcolor="#4ee8cb"] ;
223 -> 233 ;
234 [label="entropy = 0.0\nsamples = 18\nvalue = [0, 0, 0, 0, 18, 0, 0, 0, 0, 0]\nclass = 4", fillcolor="#39e5c5"] ;
233 -> 234 ;
235 [label="51 <= 5.5\nentropy = 1.0\nsamples = 2\nvalue = [0, 0, 1, 0, 0, 0, 0, 0, 0, 1]\nclass = 2", fillcolor="#ffffff"] ;
233 -> 235 ;
236 [label="entropy = 0.0\nsamples = 1\nvalue = [0, 0, 0, 0, 0, 0, 0, 0, 0, 1]\nclass = 9", fillcolor="#e53958"] ;
235 -> 236 ;
237 [label="entropy = 0.0\nsamples = 1\nvalue = [0, 0, 1, 0, 0, 0, 0, 0, 0, 0]\nclass = 2", fillcolor="#7be539"] ;
235 -> 237 ;
238 [label="55 <= 5.5\nentropy = 0.426\nsamples = 125\nvalue = [0, 117, 1, 2, 0, 0, 0, 0, 5, 0]\nclass = 1", fillcolor="#e4e746"] ;
222 -> 238 ;
239 [label="59 <= 14.5\nentropy = 0.074\nsamples = 111\nvalue = [0, 110, 0, 1, 0, 0, 0, 0, 0, 0]\nclass = 1", fillcolor="#e2e53b"] ;
238 -> 239 ;
240 [label="entropy = 0.0\nsamples = 110\nvalue = [0, 110, 0, 0, 0, 0, 0, 0, 0, 0]\nclass = 1", fillcolor="#e2e539"] ;
239 -> 240 ;
241 [label="entropy = 0.0\nsamples = 1\nvalue = [0, 0, 0, 1, 0, 0, 0, 0, 0, 0]\nclass = 3", fillcolor="#39e55e"] ;
239 -> 241 ;
242 [label="62 <= 11.5\nentropy = 1.574\nsamples = 14\nvalue = [0, 7, 1, 1, 0, 0, 0, 0, 5, 0]\nclass = 1", fillcolor="#f9f9d3"] ;
238 -> 242 ;
243 [label="27 <= 7.5\nentropy = 1.149\nsamples = 7\nvalue = [0, 0, 1, 1, 0, 0, 0, 0, 5, 0]\nclass = 8", fillcolor="#ee7bd5"] ;
242 -> 243 ;
244 [label="5 <= 13.0\nentropy = 1.0\nsamples = 2\nvalue = [0, 0, 1, 1, 0, 0, 0, 0, 0, 0]\nclass = 2", fillcolor="#ffffff"] ;
243 -> 244 ;
245 [label="entropy = 0.0\nsamples = 1\nvalue = [0, 0, 0, 1, 0, 0, 0, 0, 0, 0]\nclass = 3", fillcolor="#39e55e"] ;
244 -> 245 ;
246 [label="entropy = 0.0\nsamples = 1\nvalue = [0, 0, 1, 0, 0, 0, 0, 0, 0, 0]\nclass = 2", fillcolor="#7be539"] ;
244 -> 246 ;
247 [label="entropy = 0.0\nsamples = 5\nvalue = [0, 0, 0, 0, 0, 0, 0, 0, 5, 0]\nclass = 8", fillcolor="#e539c0"] ;
243 -> 247 ;
248 [label="entropy = 0.0\nsamples = 7\nvalue = [0, 7, 0, 0, 0, 0, 0, 0, 0, 0]\nclass = 1", fillcolor="#e2e539"] ;
242 -> 248 ;
249 [label="46 <= 8.5\nentropy = 1.739\nsamples = 353\nvalue = [1, 22, 226, 21, 0, 20, 0, 2, 53, 8]\nclass = 2", fillcolor="#b3f08d"] ;
221 -> 249 ;
250 [label="63 <= 0.5\nentropy = 1.005\nsamples = 266\nvalue = [0, 14, 222, 4, 0, 9, 0, 1, 14, 2]\nclass = 2", fillcolor="#92ea5c"] ;
249 -> 250 ;
251 [label="29 <= 3.5\nentropy = 2.316\nsamples = 50\nvalue = [0, 6, 17, 3, 0, 9, 0, 1, 13, 1]\nclass = 2", fillcolor="#f1fcea"] ;
250 -> 251 ;
252 [label="38 <= 2.0\nentropy = 0.866\nsamples = 11\nvalue = [0, 0, 0, 0, 0, 9, 0, 0, 1, 1]\nclass = 5", fillcolor="#61b1ea"] ;
251 -> 252 ;
253 [label="entropy = 0.0\nsamples = 9\nvalue = [0, 0, 0, 0, 0, 9, 0, 0, 0, 0]\nclass = 5", fillcolor="#399de5"] ;
252 -> 253 ;
254 [label="20 <= 3.5\nentropy = 1.0\nsamples = 2\nvalue = [0, 0, 0, 0, 0, 0, 0, 0, 1, 1]\nclass = 8", fillcolor="#ffffff"] ;
252 -> 254 ;
255 [label="entropy = 0.0\nsamples = 1\nvalue = [0, 0, 0, 0, 0, 0, 0, 0, 1, 0]\nclass = 8", fillcolor="#e539c0"] ;
254 -> 255 ;
256 [label="entropy = 0.0\nsamples = 1\nvalue = [0, 0, 0, 0, 0, 0, 0, 0, 0, 1]\nclass = 9", fillcolor="#e53958"] ;
254 -> 256 ;
257 [label="27 <= 10.5\nentropy = 1.881\nsamples = 39\nvalue = [0, 6, 17, 3, 0, 0, 0, 1, 12, 0]\nclass = 2", fillcolor="#e7fada"] ;
251 -> 257 ;
258 [label="44 <= 7.5\nentropy = 1.67\nsamples = 28\nvalue = [0, 5, 17, 3, 0, 0, 0, 1, 2, 0]\nclass = 2", fillcolor="#baf198"] ;
257 -> 258 ;
259 [label="4 <= 11.0\nentropy = 0.811\nsamples = 4\nvalue = [0, 0, 0, 3, 0, 0, 0, 1, 0, 0]\nclass = 3", fillcolor="#7bee94"] ;
258 -> 259 ;
260 [label="entropy = 0.0\nsamples = 1\nvalue = [0, 0, 0, 0, 0, 0, 0, 1, 0, 0]\nclass = 7", fillcolor="#a339e5"] ;
259 -> 260 ;
261 [label="entropy = 0.0\nsamples = 3\nvalue = [0, 0, 0, 3, 0, 0, 0, 0, 0, 0]\nclass = 3", fillcolor="#39e55e"] ;
259 -> 261 ;
262 [label="20 <= 9.5\nentropy = 1.123\nsamples = 24\nvalue = [0, 5, 17, 0, 0, 0, 0, 0, 2, 0]\nclass = 2", fillcolor="#acef82"] ;
258 -> 262 ;
263 [label="28 <= 11.0\nentropy = 0.503\nsamples = 18\nvalue = [0, 0, 16, 0, 0, 0, 0, 0, 2, 0]\nclass = 2", fillcolor="#8ce852"] ;
262 -> 263 ;
264 [label="entropy = 0.0\nsamples = 15\nvalue = [0, 0, 15, 0, 0, 0, 0, 0, 0, 0]\nclass = 2", fillcolor="#7be539"] ;
263 -> 264 ;
265 [label="6 <= 8.5\nentropy = 0.918\nsamples = 3\nvalue = [0, 0, 1, 0, 0, 0, 0, 0, 2, 0]\nclass = 8", fillcolor="#f29ce0"] ;
263 -> 265 ;
266 [label="entropy = 0.0\nsamples = 1\nvalue = [0, 0, 1, 0, 0, 0, 0, 0, 0, 0]\nclass = 2", fillcolor="#7be539"] ;
265 -> 266 ;
267 [label="entropy = 0.0\nsamples = 2\nvalue = [0, 0, 0, 0, 0, 0, 0, 0, 2, 0]\nclass = 8", fillcolor="#e539c0"] ;
265 -> 267 ;
268 [label="59 <= 5.5\nentropy = 0.65\nsamples = 6\nvalue = [0, 5, 1, 0, 0, 0, 0, 0, 0, 0]\nclass = 1", fillcolor="#e8ea61"] ;
262 -> 268 ;
269 [label="entropy = 0.0\nsamples = 5\nvalue = [0, 5, 0, 0, 0, 0, 0, 0, 0, 0]\nclass = 1", fillcolor="#e2e539"] ;
268 -> 269 ;
270 [label="entropy = 0.0\nsamples = 1\nvalue = [0, 0, 1, 0, 0, 0, 0, 0, 0, 0]\nclass = 2", fillcolor="#7be539"] ;
268 -> 270 ;
271 [label="12 <= 14.5\nentropy = 0.439\nsamples = 11\nvalue = [0, 1, 0, 0, 0, 0, 0, 0, 10, 0]\nclass = 8", fillcolor="#e84dc6"] ;
257 -> 271 ;
272 [label="entropy = 0.0\nsamples = 10\nvalue = [0, 0, 0, 0, 0, 0, 0, 0, 10, 0]\nclass = 8", fillcolor="#e539c0"] ;
271 -> 272 ;
273 [label="entropy = 0.0\nsamples = 1\nvalue = [0, 1, 0, 0, 0, 0, 0, 0, 0, 0]\nclass = 1", fillcolor="#e2e539"] ;
271 -> 273 ;
274 [label="28 <= 14.0\nentropy = 0.355\nsamples = 216\nvalue = [0, 8, 205, 1, 0, 0, 0, 0, 1, 1]\nclass = 2", fillcolor="#82e643"] ;
250 -> 274 ;
275 [label="52 <= 9.5\nentropy = 0.088\nsamples = 207\nvalue = [0, 0, 205, 1, 0, 0, 0, 0, 1, 0]\nclass = 2", fillcolor="#7ce53b"] ;
274 -> 275 ;
276 [label="60 <= 13.0\nentropy = 1.149\nsamples = 7\nvalue = [0, 0, 5, 1, 0, 0, 0, 0, 1, 0]\nclass = 2", fillcolor="#a7ee7b"] ;
275 -> 276 ;
277 [label="60 <= 10.0\nentropy = 1.0\nsamples = 2\nvalue = [0, 0, 0, 1, 0, 0, 0, 0, 1, 0]\nclass = 3", fillcolor="#ffffff"] ;
276 -> 277 ;
278 [label="entropy = 0.0\nsamples = 1\nvalue = [0, 0, 0, 1, 0, 0, 0, 0, 0, 0]\nclass = 3", fillcolor="#39e55e"] ;
277 -> 278 ;
279 [label="entropy = 0.0\nsamples = 1\nvalue = [0, 0, 0, 0, 0, 0, 0, 0, 1, 0]\nclass = 8", fillcolor="#e539c0"] ;
277 -> 279 ;
280 [label="entropy = 0.0\nsamples = 5\nvalue = [0, 0, 5, 0, 0, 0, 0, 0, 0, 0]\nclass = 2", fillcolor="#7be539"] ;
276 -> 280 ;
281 [label="entropy = 0.0\nsamples = 200\nvalue = [0, 0, 200, 0, 0, 0, 0, 0, 0, 0]\nclass = 2", fillcolor="#7be539"] ;
275 -> 281 ;
282 [label="53 <= 8.0\nentropy = 0.503\nsamples = 9\nvalue = [0, 8, 0, 0, 0, 0, 0, 0, 0, 1]\nclass = 1", fillcolor="#e6e852"] ;
274 -> 282 ;
283 [label="entropy = 0.0\nsamples = 1\nvalue = [0, 0, 0, 0, 0, 0, 0, 0, 0, 1]\nclass = 9", fillcolor="#e53958"] ;
282 -> 283 ;
284 [label="entropy = 0.0\nsamples = 8\nvalue = [0, 8, 0, 0, 0, 0, 0, 0, 0, 0]\nclass = 1", fillcolor="#e2e539"] ;
282 -> 284 ;
285 [label="44 <= 9.5\nentropy = 2.291\nsamples = 87\nvalue = [1, 8, 4, 17, 0, 11, 0, 1, 39, 6]\nclass = 8", fillcolor="#f7c1eb"] ;
249 -> 285 ;
286 [label="22 <= 2.5\nentropy = 1.986\nsamples = 35\nvalue = [0, 0, 0, 14, 0, 10, 0, 1, 4, 6]\nclass = 3", fillcolor="#dffbe5"] ;
285 -> 286 ;
287 [label="63 <= 0.5\nentropy = 0.439\nsamples = 11\nvalue = [0, 0, 0, 1, 0, 10, 0, 0, 0, 0]\nclass = 5", fillcolor="#4da7e8"] ;
286 -> 287 ;
288 [label="entropy = 0.0\nsamples = 10\nvalue = [0, 0, 0, 0, 0, 10, 0, 0, 0, 0]\nclass = 5", fillcolor="#399de5"] ;
287 -> 288 ;
289 [label="entropy = 0.0\nsamples = 1\nvalue = [0, 0, 0, 1, 0, 0, 0, 0, 0, 0]\nclass = 3", fillcolor="#39e55e"] ;
287 -> 289 ;
290 [label="26 <= 1.5\nentropy = 1.601\nsamples = 24\nvalue = [0, 0, 0, 13, 0, 0, 0, 1, 4, 6]\nclass = 3", fillcolor="#b2f5c0"] ;
286 -> 290 ;
291 [label="60 <= 11.5\nentropy = 0.993\nsamples = 16\nvalue = [0, 0, 0, 13, 0, 0, 0, 1, 1, 1]\nclass = 3", fillcolor="#61ea7e"] ;
290 -> 291 ;
292 [label="62 <= 8.0\nentropy = 1.0\nsamples = 2\nvalue = [0, 0, 0, 0, 0, 0, 0, 1, 1, 0]\nclass = 7", fillcolor="#ffffff"] ;
291 -> 292 ;
293 [label="entropy = 0.0\nsamples = 1\nvalue = [0, 0, 0, 0, 0, 0, 0, 0, 1, 0]\nclass = 8", fillcolor="#e539c0"] ;
292 -> 293 ;
294 [label="entropy = 0.0\nsamples = 1\nvalue = [0, 0, 0, 0, 0, 0, 0, 1, 0, 0]\nclass = 7", fillcolor="#a339e5"] ;
292 -> 294 ;
295 [label="53 <= 15.5\nentropy = 0.371\nsamples = 14\nvalue = [0, 0, 0, 13, 0, 0, 0, 0, 0, 1]\nclass = 3", fillcolor="#48e76a"] ;
291 -> 295 ;
296 [label="entropy = 0.0\nsamples = 13\nvalue = [0, 0, 0, 13, 0, 0, 0, 0, 0, 0]\nclass = 3", fillcolor="#39e55e"] ;
295 -> 296 ;
297 [label="entropy = 0.0\nsamples = 1\nvalue = [0, 0, 0, 0, 0, 0, 0, 0, 0, 1]\nclass = 9", fillcolor="#e53958"] ;
295 -> 297 ;
298 [label="4 <= 10.5\nentropy = 0.954\nsamples = 8\nvalue = [0, 0, 0, 0, 0, 0, 0, 0, 3, 5]\nclass = 9", fillcolor="#f5b0bc"] ;
290 -> 298 ;
299 [label="entropy = 0.0\nsamples = 3\nvalue = [0, 0, 0, 0, 0, 0, 0, 0, 3, 0]\nclass = 8", fillcolor="#e539c0"] ;
298 -> 299 ;
300 [label="entropy = 0.0\nsamples = 5\nvalue = [0, 0, 0, 0, 0, 0, 0, 0, 0, 5]\nclass = 9", fillcolor="#e53958"] ;
298 -> 300 ;
301 [label="18 <= 1.5\nentropy = 1.541\nsamples = 52\nvalue = [1, 8, 4, 3, 0, 1, 0, 0, 35, 0]\nclass = 8", fillcolor="#ef86d8"] ;
285 -> 301 ;
302 [label="37 <= 15.5\nentropy = 1.753\nsamples = 14\nvalue = [1, 8, 1, 3, 0, 0, 0, 0, 1, 0]\nclass = 1", fillcolor="#f2f3a5"] ;
301 -> 302 ;
303 [label="4 <= 13.5\nentropy = 1.792\nsamples = 6\nvalue = [1, 0, 1, 3, 0, 0, 0, 0, 1, 0]\nclass = 3", fillcolor="#b0f5bf"] ;
302 -> 303 ;
304 [label="entropy = 0.0\nsamples = 3\nvalue = [0, 0, 0, 3, 0, 0, 0, 0, 0, 0]\nclass = 3", fillcolor="#39e55e"] ;
303 -> 304 ;
305 [label="63 <= 5.0\nentropy = 1.585\nsamples = 3\nvalue = [1, 0, 1, 0, 0, 0, 0, 0, 1, 0]\nclass = 0", fillcolor="#ffffff"] ;
303 -> 305 ;
306 [label="59 <= 3.0\nentropy = 1.0\nsamples = 2\nvalue = [1, 0, 0, 0, 0, 0, 0, 0, 1, 0]\nclass = 0", fillcolor="#ffffff"] ;
305 -> 306 ;
307 [label="entropy = 0.0\nsamples = 1\nvalue = [1, 0, 0, 0, 0, 0, 0, 0, 0, 0]\nclass = 0", fillcolor="#e58139"] ;
306 -> 307 ;
308 [label="entropy = 0.0\nsamples = 1\nvalue = [0, 0, 0, 0, 0, 0, 0, 0, 1, 0]\nclass = 8", fillcolor="#e539c0"] ;
306 -> 308 ;
309 [label="entropy = 0.0\nsamples = 1\nvalue = [0, 0, 1, 0, 0, 0, 0, 0, 0, 0]\nclass = 2", fillcolor="#7be539"] ;
305 -> 309 ;
310 [label="entropy = 0.0\nsamples = 8\nvalue = [0, 8, 0, 0, 0, 0, 0, 0, 0, 0]\nclass = 1", fillcolor="#e2e539"] ;
302 -> 310 ;
311 [label="27 <= 2.5\nentropy = 0.571\nsamples = 38\nvalue = [0, 0, 3, 0, 0, 1, 0, 0, 34, 0]\nclass = 8", fillcolor="#e850c7"] ;
301 -> 311 ;
312 [label="55 <= 1.5\nentropy = 0.811\nsamples = 4\nvalue = [0, 0, 3, 0, 0, 0, 0, 0, 1, 0]\nclass = 2", fillcolor="#a7ee7b"] ;
311 -> 312 ;
313 [label="entropy = 0.0\nsamples = 1\nvalue = [0, 0, 0, 0, 0, 0, 0, 0, 1, 0]\nclass = 8", fillcolor="#e539c0"] ;
312 -> 313 ;
314 [label="entropy = 0.0\nsamples = 3\nvalue = [0, 0, 3, 0, 0, 0, 0, 0, 0, 0]\nclass = 2", fillcolor="#7be539"] ;
312 -> 314 ;
315 [label="7 <= 6.0\nentropy = 0.191\nsamples = 34\nvalue = [0, 0, 0, 0, 0, 1, 0, 0, 33, 0]\nclass = 8", fillcolor="#e63fc2"] ;
311 -> 315 ;
316 [label="entropy = 0.0\nsamples = 33\nvalue = [0, 0, 0, 0, 0, 0, 0, 0, 33, 0]\nclass = 8", fillcolor="#e539c0"] ;
315 -> 316 ;
317 [label="entropy = 0.0\nsamples = 1\nvalue = [0, 0, 0, 0, 0, 1, 0, 0, 0, 0]\nclass = 5", fillcolor="#399de5"] ;
315 -> 317 ;
318 [label="37 <= 0.5\nentropy = 2.719\nsamples = 1760\nvalue = [386, 128, 126, 10, 262, 9, 388, 112, 337, 2]\nclass = 6", fillcolor="#ffffff"] ;
0 -> 318 [labeldistance=2.5, labelangle=-45, headlabel="False"] ;
319 [label="22 <= 3.5\nentropy = 0.816\nsamples = 418\nvalue = [367, 0, 14, 0, 10, 4, 14, 0, 8, 1]\nclass = 0", fillcolor="#e89152"] ;
318 -> 319 ;
320 [label="10 <= 0.5\nentropy = 2.12\nsamples = 43\nvalue = [3, 0, 13, 0, 10, 4, 13, 0, 0, 0]\nclass = 2", fillcolor="#ffffff"] ;
319 -> 320 ;
321 [label="31 <= 3.0\nentropy = 1.196\nsamples = 24\nvalue = [1, 0, 0, 0, 10, 0, 13, 0, 0, 0]\nclass = 6", fillcolor="#d5d5f9"] ;
320 -> 321 ;
322 [label="entropy = 0.0\nsamples = 13\nvalue = [0, 0, 0, 0, 0, 0, 13, 0, 0, 0]\nclass = 6", fillcolor="#3c39e5"] ;
321 -> 322 ;
323 [label="15 <= 4.0\nentropy = 0.439\nsamples = 11\nvalue = [1, 0, 0, 0, 10, 0, 0, 0, 0, 0]\nclass = 4", fillcolor="#4de8cb"] ;
321 -> 323 ;
324 [label="entropy = 0.0\nsamples = 10\nvalue = [0, 0, 0, 0, 10, 0, 0, 0, 0, 0]\nclass = 4", fillcolor="#39e5c5"] ;
323 -> 324 ;
325 [label="entropy = 0.0\nsamples = 1\nvalue = [1, 0, 0, 0, 0, 0, 0, 0, 0, 0]\nclass = 0", fillcolor="#e58139"] ;
323 -> 325 ;
326 [label="63 <= 0.5\nentropy = 1.19\nsamples = 19\nvalue = [2, 0, 13, 0, 0, 4, 0, 0, 0, 0]\nclass = 2", fillcolor="#b0ef88"] ;
320 -> 326 ;
327 [label="7 <= 1.5\nentropy = 0.918\nsamples = 6\nvalue = [2, 0, 0, 0, 0, 4, 0, 0, 0, 0]\nclass = 5", fillcolor="#9ccef2"] ;
326 -> 327 ;
328 [label="entropy = 0.0\nsamples = 2\nvalue = [2, 0, 0, 0, 0, 0, 0, 0, 0, 0]\nclass = 0", fillcolor="#e58139"] ;
327 -> 328 ;
329 [label="entropy = 0.0\nsamples = 4\nvalue = [0, 0, 0, 0, 0, 4, 0, 0, 0, 0]\nclass = 5", fillcolor="#399de5"] ;
327 -> 329 ;
330 [label="entropy = 0.0\nsamples = 13\nvalue = [0, 0, 13, 0, 0, 0, 0, 0, 0, 0]\nclass = 2", fillcolor="#7be539"] ;
326 -> 330 ;
331 [label="29 <= 4.5\nentropy = 0.229\nsamples = 375\nvalue = [364, 0, 1, 0, 0, 0, 1, 0, 8, 1]\nclass = 0", fillcolor="#e6853f"] ;
319 -> 331 ;
332 [label="44 <= 9.5\nentropy = 0.055\nsamples = 360\nvalue = [358, 0, 1, 0, 0, 0, 0, 0, 1, 0]\nclass = 0", fillcolor="#e5823a"] ;
331 -> 332 ;
333 [label="entropy = 0.0\nsamples = 349\nvalue = [349, 0, 0, 0, 0, 0, 0, 0, 0, 0]\nclass = 0", fillcolor="#e58139"] ;
332 -> 333 ;
334 [label="60 <= 15.0\nentropy = 0.866\nsamples = 11\nvalue = [9, 0, 1, 0, 0, 0, 0, 0, 1, 0]\nclass = 0", fillcolor="#ea9a61"] ;
332 -> 334 ;
335 [label="entropy = 0.0\nsamples = 9\nvalue = [9, 0, 0, 0, 0, 0, 0, 0, 0, 0]\nclass = 0", fillcolor="#e58139"] ;
334 -> 335 ;
336 [label="51 <= 15.5\nentropy = 1.0\nsamples = 2\nvalue = [0, 0, 1, 0, 0, 0, 0, 0, 1, 0]\nclass = 2", fillcolor="#ffffff"] ;
334 -> 336 ;
337 [label="entropy = 0.0\nsamples = 1\nvalue = [0, 0, 0, 0, 0, 0, 0, 0, 1, 0]\nclass = 8", fillcolor="#e539c0"] ;
336 -> 337 ;
338 [label="entropy = 0.0\nsamples = 1\nvalue = [0, 0, 1, 0, 0, 0, 0, 0, 0, 0]\nclass = 2", fillcolor="#7be539"] ;
336 -> 338 ;
339 [label="5 <= 6.5\nentropy = 1.563\nsamples = 15\nvalue = [6, 0, 0, 0, 0, 0, 1, 0, 7, 1]\nclass = 8", fillcolor="#fce9f8"] ;
331 -> 339 ;
340 [label="35 <= 14.0\nentropy = 0.592\nsamples = 7\nvalue = [6, 0, 0, 0, 0, 0, 1, 0, 0, 0]\nclass = 0", fillcolor="#e9965a"] ;
339 -> 340 ;
341 [label="entropy = 0.0\nsamples = 6\nvalue = [6, 0, 0, 0, 0, 0, 0, 0, 0, 0]\nclass = 0", fillcolor="#e58139"] ;
340 -> 341 ;
342 [label="entropy = 0.0\nsamples = 1\nvalue = [0, 0, 0, 0, 0, 0, 1, 0, 0, 0]\nclass = 6", fillcolor="#3c39e5"] ;
340 -> 342 ;
343 [label="46 <= 7.5\nentropy = 0.544\nsamples = 8\nvalue = [0, 0, 0, 0, 0, 0, 0, 0, 7, 1]\nclass = 8", fillcolor="#e955c9"] ;
339 -> 343 ;
344 [label="entropy = 0.0\nsamples = 7\nvalue = [0, 0, 0, 0, 0, 0, 0, 0, 7, 0]\nclass = 8", fillcolor="#e539c0"] ;
343 -> 344 ;
345 [label="entropy = 0.0\nsamples = 1\nvalue = [0, 0, 0, 0, 0, 0, 0, 0, 0, 1]\nclass = 9", fillcolor="#e53958"] ;
343 -> 345 ;
346 [label="22 <= 0.5\nentropy = 2.563\nsamples = 1342\nvalue = [19, 128, 112, 10, 252, 5, 374, 112, 329, 1]\nclass = 6", fillcolor="#f6f6fe"] ;
318 -> 346 ;
347 [label="55 <= 3.5\nentropy = 1.371\nsamples = 505\nvalue = [0, 20, 32, 1, 67, 3, 368, 1, 13, 0]\nclass = 6", fillcolor="#7977ed"] ;
346 -> 347 ;
348 [label="4 <= 10.5\nentropy = 2.091\nsamples = 126\nvalue = [0, 20, 10, 0, 62, 3, 22, 1, 8, 0]\nclass = 4", fillcolor="#b3f5e9"] ;
347 -> 348 ;
349 [label="42 <= 3.5\nentropy = 0.842\nsamples = 74\nvalue = [0, 3, 0, 0, 60, 0, 11, 0, 0, 0]\nclass = 4", fillcolor="#65ebd2"] ;
348 -> 349 ;
350 [label="38 <= 12.5\nentropy = 1.415\nsamples = 18\nvalue = [0, 3, 0, 0, 5, 0, 10, 0, 0, 0]\nclass = 6", fillcolor="#b4b3f5"] ;
349 -> 350 ;
351 [label="29 <= 8.5\nentropy = 0.779\nsamples = 13\nvalue = [0, 3, 0, 0, 0, 0, 10, 0, 0, 0]\nclass = 6", fillcolor="#7674ed"] ;
350 -> 351 ;
352 [label="entropy = 0.0\nsamples = 10\nvalue = [0, 0, 0, 0, 0, 0, 10, 0, 0, 0]\nclass = 6", fillcolor="#3c39e5"] ;
351 -> 352 ;
353 [label="entropy = 0.0\nsamples = 3\nvalue = [0, 3, 0, 0, 0, 0, 0, 0, 0, 0]\nclass = 1", fillcolor="#e2e539"] ;
351 -> 353 ;
354 [label="entropy = 0.0\nsamples = 5\nvalue = [0, 0, 0, 0, 5, 0, 0, 0, 0, 0]\nclass = 4", fillcolor="#39e5c5"] ;
350 -> 354 ;
355 [label="20 <= 2.5\nentropy = 0.129\nsamples = 56\nvalue = [0, 0, 0, 0, 55, 0, 1, 0, 0, 0]\nclass = 4", fillcolor="#3de5c6"] ;
349 -> 355 ;
356 [label="entropy = 0.0\nsamples = 1\nvalue = [0, 0, 0, 0, 0, 0, 1, 0, 0, 0]\nclass = 6", fillcolor="#3c39e5"] ;
355 -> 356 ;
357 [label="entropy = 0.0\nsamples = 55\nvalue = [0, 0, 0, 0, 55, 0, 0, 0, 0, 0]\nclass = 4", fillcolor="#39e5c5"] ;
355 -> 357 ;
358 [label="21 <= 8.5\nentropy = 2.402\nsamples = 52\nvalue = [0, 17, 10, 0, 2, 3, 11, 1, 8, 0]\nclass = 1", fillcolor="#fbfbe2"] ;
348 -> 358 ;
359 [label="54 <= 11.5\nentropy = 1.901\nsamples = 23\nvalue = [0, 0, 1, 0, 2, 3, 11, 0, 6, 0]\nclass = 6", fillcolor="#c6c5f7"] ;
358 -> 359 ;
360 [label="46 <= 2.0\nentropy = 1.891\nsamples = 9\nvalue = [0, 0, 1, 0, 2, 3, 0, 0, 3, 0]\nclass = 5", fillcolor="#ffffff"] ;
359 -> 360 ;
361 [label="26 <= 4.5\nentropy = 0.811\nsamples = 4\nvalue = [0, 0, 1, 0, 0, 0, 0, 0, 3, 0]\nclass = 8", fillcolor="#ee7bd5"] ;
360 -> 361 ;
362 [label="entropy = 0.0\nsamples = 3\nvalue = [0, 0, 0, 0, 0, 0, 0, 0, 3, 0]\nclass = 8", fillcolor="#e539c0"] ;
361 -> 362 ;
363 [label="entropy = 0.0\nsamples = 1\nvalue = [0, 0, 1, 0, 0, 0, 0, 0, 0, 0]\nclass = 2", fillcolor="#7be539"] ;
361 -> 363 ;
364 [label="35 <= 15.5\nentropy = 0.971\nsamples = 5\nvalue = [0, 0, 0, 0, 2, 3, 0, 0, 0, 0]\nclass = 5", fillcolor="#bddef6"] ;
360 -> 364 ;
365 [label="entropy = 0.0\nsamples = 3\nvalue = [0, 0, 0, 0, 0, 3, 0, 0, 0, 0]\nclass = 5", fillcolor="#399de5"] ;
364 -> 365 ;
366 [label="entropy = 0.0\nsamples = 2\nvalue = [0, 0, 0, 0, 2, 0, 0, 0, 0, 0]\nclass = 4", fillcolor="#39e5c5"] ;
364 -> 366 ;
367 [label="29 <= 13.0\nentropy = 0.75\nsamples = 14\nvalue = [0, 0, 0, 0, 0, 0, 11, 0, 3, 0]\nclass = 6", fillcolor="#716fec"] ;
359 -> 367 ;
368 [label="entropy = 0.0\nsamples = 11\nvalue = [0, 0, 0, 0, 0, 0, 11, 0, 0, 0]\nclass = 6", fillcolor="#3c39e5"] ;
367 -> 368 ;
369 [label="entropy = 0.0\nsamples = 3\nvalue = [0, 0, 0, 0, 0, 0, 0, 0, 3, 0]\nclass = 8", fillcolor="#e539c0"] ;
367 -> 369 ;
370 [label="20 <= 15.5\nentropy = 1.409\nsamples = 29\nvalue = [0, 17, 9, 0, 0, 0, 0, 1, 2, 0]\nclass = 1", fillcolor="#f3f5b0"] ;
358 -> 370 ;
371 [label="5 <= 13.0\nentropy = 1.041\nsamples = 12\nvalue = [0, 0, 9, 0, 0, 0, 0, 1, 2, 0]\nclass = 2", fillcolor="#a3ed74"] ;
370 -> 371 ;
372 [label="entropy = 0.0\nsamples = 9\nvalue = [0, 0, 9, 0, 0, 0, 0, 0, 0, 0]\nclass = 2", fillcolor="#7be539"] ;
371 -> 372 ;
373 [label="21 <= 14.5\nentropy = 0.918\nsamples = 3\nvalue = [0, 0, 0, 0, 0, 0, 0, 1, 2, 0]\nclass = 8", fillcolor="#f29ce0"] ;
371 -> 373 ;
374 [label="entropy = 0.0\nsamples = 2\nvalue = [0, 0, 0, 0, 0, 0, 0, 0, 2, 0]\nclass = 8", fillcolor="#e539c0"] ;
373 -> 374 ;
375 [label="entropy = 0.0\nsamples = 1\nvalue = [0, 0, 0, 0, 0, 0, 0, 1, 0, 0]\nclass = 7", fillcolor="#a339e5"] ;
373 -> 375 ;
376 [label="entropy = 0.0\nsamples = 17\nvalue = [0, 17, 0, 0, 0, 0, 0, 0, 0, 0]\nclass = 1", fillcolor="#e2e539"] ;
370 -> 376 ;
377 [label="21 <= 7.5\nentropy = 0.546\nsamples = 379\nvalue = [0, 0, 22, 1, 5, 0, 346, 0, 5, 0]\nclass = 6", fillcolor="#4e4be7"] ;
347 -> 377 ;
378 [label="19 <= 2.5\nentropy = 0.08\nsamples = 344\nvalue = [0, 0, 0, 0, 2, 0, 341, 0, 1, 0]\nclass = 6", fillcolor="#3e3be5"] ;
377 -> 378 ;
379 [label="63 <= 5.5\nentropy = 0.918\nsamples = 3\nvalue = [0, 0, 0, 0, 2, 0, 1, 0, 0, 0]\nclass = 4", fillcolor="#9cf2e2"] ;
378 -> 379 ;
380 [label="entropy = 0.0\nsamples = 2\nvalue = [0, 0, 0, 0, 2, 0, 0, 0, 0, 0]\nclass = 4", fillcolor="#39e5c5"] ;
379 -> 380 ;
381 [label="entropy = 0.0\nsamples = 1\nvalue = [0, 0, 0, 0, 0, 0, 1, 0, 0, 0]\nclass = 6", fillcolor="#3c39e5"] ;
379 -> 381 ;
382 [label="30 <= 15.0\nentropy = 0.029\nsamples = 341\nvalue = [0, 0, 0, 0, 0, 0, 340, 0, 1, 0]\nclass = 6", fillcolor="#3d3ae5"] ;
378 -> 382 ;
383 [label="entropy = 0.0\nsamples = 340\nvalue = [0, 0, 0, 0, 0, 0, 340, 0, 0, 0]\nclass = 6", fillcolor="#3c39e5"] ;
382 -> 383 ;
384 [label="entropy = 0.0\nsamples = 1\nvalue = [0, 0, 0, 0, 0, 0, 0, 0, 1, 0]\nclass = 8", fillcolor="#e539c0"] ;
382 -> 384 ;
385 [label="38 <= 0.5\nentropy = 1.63\nsamples = 35\nvalue = [0, 0, 22, 1, 3, 0, 5, 0, 4, 0]\nclass = 2", fillcolor="#b4f08f"] ;
377 -> 385 ;
386 [label="entropy = 0.0\nsamples = 22\nvalue = [0, 0, 22, 0, 0, 0, 0, 0, 0, 0]\nclass = 2", fillcolor="#7be539"] ;
385 -> 386 ;
387 [label="3 <= 2.0\nentropy = 1.826\nsamples = 13\nvalue = [0, 0, 0, 1, 3, 0, 5, 0, 4, 0]\nclass = 6", fillcolor="#e9e9fc"] ;
385 -> 387 ;
388 [label="50 <= 4.5\nentropy = 0.954\nsamples = 8\nvalue = [0, 0, 0, 0, 3, 0, 5, 0, 0, 0]\nclass = 6", fillcolor="#b1b0f5"] ;
387 -> 388 ;
389 [label="entropy = 0.0\nsamples = 5\nvalue = [0, 0, 0, 0, 0, 0, 5, 0, 0, 0]\nclass = 6", fillcolor="#3c39e5"] ;
388 -> 389 ;
390 [label="entropy = 0.0\nsamples = 3\nvalue = [0, 0, 0, 0, 3, 0, 0, 0, 0, 0]\nclass = 4", fillcolor="#39e5c5"] ;
388 -> 390 ;
391 [label="42 <= 4.0\nentropy = 0.722\nsamples = 5\nvalue = [0, 0, 0, 1, 0, 0, 0, 0, 4, 0]\nclass = 8", fillcolor="#ec6ad0"] ;
387 -> 391 ;
392 [label="entropy = 0.0\nsamples = 4\nvalue = [0, 0, 0, 0, 0, 0, 0, 0, 4, 0]\nclass = 8", fillcolor="#e539c0"] ;
391 -> 392 ;
393 [label="entropy = 0.0\nsamples = 1\nvalue = [0, 0, 0, 1, 0, 0, 0, 0, 0, 0]\nclass = 3", fillcolor="#39e55e"] ;
391 -> 393 ;
394 [label="39 <= 0.5\nentropy = 2.381\nsamples = 837\nvalue = [19, 108, 80, 9, 185, 2, 6, 111, 316, 1]\nclass = 8", fillcolor="#fad7f2"] ;
346 -> 394 ;
395 [label="20 <= 15.5\nentropy = 1.688\nsamples = 498\nvalue = [0, 106, 80, 0, 13, 1, 2, 11, 284, 1]\nclass = 8", fillcolor="#f3a5e2"] ;
394 -> 395 ;
396 [label="27 <= 0.5\nentropy = 1.453\nsamples = 378\nvalue = [0, 17, 80, 0, 12, 1, 2, 11, 254, 1]\nclass = 8", fillcolor="#f08bda"] ;
395 -> 396 ;
397 [label="20 <= 9.0\nentropy = 1.405\nsamples = 95\nvalue = [0, 6, 65, 0, 0, 0, 1, 7, 16, 0]\nclass = 2", fillcolor="#adef84"] ;
396 -> 397 ;
398 [label="62 <= 1.0\nentropy = 0.814\nsamples = 71\nvalue = [0, 3, 60, 0, 0, 0, 1, 7, 0, 0]\nclass = 2", fillcolor="#92e95b"] ;
397 -> 398 ;
399 [label="entropy = 0.0\nsamples = 7\nvalue = [0, 0, 0, 0, 0, 0, 0, 7, 0, 0]\nclass = 7", fillcolor="#a339e5"] ;
398 -> 399 ;
400 [label="45 <= 12.5\nentropy = 0.388\nsamples = 64\nvalue = [0, 3, 60, 0, 0, 0, 1, 0, 0, 0]\nclass = 2", fillcolor="#84e746"] ;
398 -> 400 ;
401 [label="entropy = 0.0\nsamples = 60\nvalue = [0, 0, 60, 0, 0, 0, 0, 0, 0, 0]\nclass = 2", fillcolor="#7be539"] ;
400 -> 401 ;
402 [label="63 <= 11.0\nentropy = 0.811\nsamples = 4\nvalue = [0, 3, 0, 0, 0, 0, 1, 0, 0, 0]\nclass = 1", fillcolor="#ecee7b"] ;
400 -> 402 ;
403 [label="entropy = 0.0\nsamples = 3\nvalue = [0, 3, 0, 0, 0, 0, 0, 0, 0, 0]\nclass = 1", fillcolor="#e2e539"] ;
402 -> 403 ;
404 [label="entropy = 0.0\nsamples = 1\nvalue = [0, 0, 0, 0, 0, 0, 1, 0, 0, 0]\nclass = 6", fillcolor="#3c39e5"] ;
402 -> 404 ;
405 [label="59 <= 0.5\nentropy = 1.236\nsamples = 24\nvalue = [0, 3, 5, 0, 0, 0, 0, 0, 16, 0]\nclass = 8", fillcolor="#f08cdb"] ;
397 -> 405 ;
406 [label="61 <= 12.5\nentropy = 1.0\nsamples = 6\nvalue = [0, 3, 3, 0, 0, 0, 0, 0, 0, 0]\nclass = 1", fillcolor="#ffffff"] ;
405 -> 406 ;
407 [label="entropy = 0.0\nsamples = 3\nvalue = [0, 0, 3, 0, 0, 0, 0, 0, 0, 0]\nclass = 2", fillcolor="#7be539"] ;
406 -> 407 ;
408 [label="entropy = 0.0\nsamples = 3\nvalue = [0, 3, 0, 0, 0, 0, 0, 0, 0, 0]\nclass = 1", fillcolor="#e2e539"] ;
406 -> 408 ;
409 [label="21 <= 15.5\nentropy = 0.503\nsamples = 18\nvalue = [0, 0, 2, 0, 0, 0, 0, 0, 16, 0]\nclass = 8", fillcolor="#e852c8"] ;
405 -> 409 ;
410 [label="entropy = 0.0\nsamples = 15\nvalue = [0, 0, 0, 0, 0, 0, 0, 0, 15, 0]\nclass = 8", fillcolor="#e539c0"] ;
409 -> 410 ;
411 [label="28 <= 11.5\nentropy = 0.918\nsamples = 3\nvalue = [0, 0, 2, 0, 0, 0, 0, 0, 1, 0]\nclass = 2", fillcolor="#bdf29c"] ;
409 -> 411 ;
412 [label="entropy = 0.0\nsamples = 1\nvalue = [0, 0, 0, 0, 0, 0, 0, 0, 1, 0]\nclass = 8", fillcolor="#e539c0"] ;
411 -> 412 ;
413 [label="entropy = 0.0\nsamples = 2\nvalue = [0, 0, 2, 0, 0, 0, 0, 0, 0, 0]\nclass = 2", fillcolor="#7be539"] ;
411 -> 413 ;
414 [label="51 <= 6.0\nentropy = 0.983\nsamples = 283\nvalue = [0, 11, 15, 0, 12, 1, 1, 4, 238, 1]\nclass = 8", fillcolor="#e95acb"] ;
396 -> 414 ;
415 [label="21 <= 11.0\nentropy = 1.52\nsamples = 17\nvalue = [0, 8, 0, 0, 7, 1, 0, 1, 0, 0]\nclass = 1", fillcolor="#fcfceb"] ;
414 -> 415 ;
416 [label="46 <= 0.5\nentropy = 0.986\nsamples = 9\nvalue = [0, 0, 0, 0, 7, 1, 0, 1, 0, 0]\nclass = 4", fillcolor="#6aecd4"] ;
415 -> 416 ;
417 [label="14 <= 13.5\nentropy = 1.0\nsamples = 2\nvalue = [0, 0, 0, 0, 0, 1, 0, 1, 0, 0]\nclass = 5", fillcolor="#ffffff"] ;
416 -> 417 ;
418 [label="entropy = 0.0\nsamples = 1\nvalue = [0, 0, 0, 0, 0, 0, 0, 1, 0, 0]\nclass = 7", fillcolor="#a339e5"] ;
417 -> 418 ;
419 [label="entropy = 0.0\nsamples = 1\nvalue = [0, 0, 0, 0, 0, 1, 0, 0, 0, 0]\nclass = 5", fillcolor="#399de5"] ;
417 -> 419 ;
420 [label="entropy = 0.0\nsamples = 7\nvalue = [0, 0, 0, 0, 7, 0, 0, 0, 0, 0]\nclass = 4", fillcolor="#39e5c5"] ;
416 -> 420 ;
421 [label="entropy = 0.0\nsamples = 8\nvalue = [0, 8, 0, 0, 0, 0, 0, 0, 0, 0]\nclass = 1", fillcolor="#e2e539"] ;
415 -> 421 ;
422 [label="28 <= 9.5\nentropy = 0.692\nsamples = 266\nvalue = [0, 3, 15, 0, 5, 0, 1, 3, 238, 1]\nclass = 8", fillcolor="#e84fc7"] ;
414 -> 422 ;
423 [label="22 <= 10.0\nentropy = 1.657\nsamples = 33\nvalue = [0, 0, 12, 0, 3, 0, 1, 1, 16, 0]\nclass = 8", fillcolor="#fad9f3"] ;
422 -> 423 ;
424 [label="62 <= 6.5\nentropy = 1.375\nsamples = 15\nvalue = [0, 0, 10, 0, 3, 0, 1, 1, 0, 0]\nclass = 2", fillcolor="#b2f08c"] ;
423 -> 424 ;
425 [label="28 <= 7.0\nentropy = 1.371\nsamples = 5\nvalue = [0, 0, 0, 0, 3, 0, 1, 1, 0, 0]\nclass = 4", fillcolor="#9cf2e2"] ;
424 -> 425 ;
426 [label="entropy = 0.0\nsamples = 3\nvalue = [0, 0, 0, 0, 3, 0, 0, 0, 0, 0]\nclass = 4", fillcolor="#39e5c5"] ;
425 -> 426 ;
427 [label="3 <= 5.0\nentropy = 1.0\nsamples = 2\nvalue = [0, 0, 0, 0, 0, 0, 1, 1, 0, 0]\nclass = 6", fillcolor="#ffffff"] ;
425 -> 427 ;
428 [label="entropy = 0.0\nsamples = 1\nvalue = [0, 0, 0, 0, 0, 0, 1, 0, 0, 0]\nclass = 6", fillcolor="#3c39e5"] ;
427 -> 428 ;
429 [label="entropy = 0.0\nsamples = 1\nvalue = [0, 0, 0, 0, 0, 0, 0, 1, 0, 0]\nclass = 7", fillcolor="#a339e5"] ;
427 -> 429 ;
430 [label="entropy = 0.0\nsamples = 10\nvalue = [0, 0, 10, 0, 0, 0, 0, 0, 0, 0]\nclass = 2", fillcolor="#7be539"] ;
424 -> 430 ;
431 [label="60 <= 5.5\nentropy = 0.503\nsamples = 18\nvalue = [0, 0, 2, 0, 0, 0, 0, 0, 16, 0]\nclass = 8", fillcolor="#e852c8"] ;
423 -> 431 ;
432 [label="entropy = 0.0\nsamples = 2\nvalue = [0, 0, 2, 0, 0, 0, 0, 0, 0, 0]\nclass = 2", fillcolor="#7be539"] ;
431 -> 432 ;
433 [label="entropy = 0.0\nsamples = 16\nvalue = [0, 0, 0, 0, 0, 0, 0, 0, 16, 0]\nclass = 8", fillcolor="#e539c0"] ;
431 -> 433 ;
434 [label="19 <= 3.5\nentropy = 0.38\nsamples = 233\nvalue = [0, 3, 3, 0, 2, 0, 0, 2, 222, 1]\nclass = 8", fillcolor="#e642c3"] ;
422 -> 434 ;
435 [label="50 <= 0.5\nentropy = 2.192\nsamples = 13\nvalue = [0, 2, 2, 0, 2, 0, 0, 2, 5, 0]\nclass = 8", fillcolor="#f8c9ee"] ;
434 -> 435 ;
436 [label="29 <= 15.0\nentropy = 0.863\nsamples = 7\nvalue = [0, 2, 0, 0, 0, 0, 0, 0, 5, 0]\nclass = 8", fillcolor="#ef88d9"] ;
435 -> 436 ;
437 [label="entropy = 0.0\nsamples = 5\nvalue = [0, 0, 0, 0, 0, 0, 0, 0, 5, 0]\nclass = 8", fillcolor="#e539c0"] ;
436 -> 437 ;
438 [label="entropy = 0.0\nsamples = 2\nvalue = [0, 2, 0, 0, 0, 0, 0, 0, 0, 0]\nclass = 1", fillcolor="#e2e539"] ;
436 -> 438 ;
439 [label="3 <= 4.5\nentropy = 1.585\nsamples = 6\nvalue = [0, 0, 2, 0, 2, 0, 0, 2, 0, 0]\nclass = 2", fillcolor="#ffffff"] ;
435 -> 439 ;
440 [label="entropy = 0.0\nsamples = 2\nvalue = [0, 0, 0, 0, 2, 0, 0, 0, 0, 0]\nclass = 4", fillcolor="#39e5c5"] ;
439 -> 440 ;
441 [label="60 <= 8.5\nentropy = 1.0\nsamples = 4\nvalue = [0, 0, 2, 0, 0, 0, 0, 2, 0, 0]\nclass = 2", fillcolor="#ffffff"] ;
439 -> 441 ;
442 [label="entropy = 0.0\nsamples = 2\nvalue = [0, 0, 0, 0, 0, 0, 0, 2, 0, 0]\nclass = 7", fillcolor="#a339e5"] ;
441 -> 442 ;
443 [label="entropy = 0.0\nsamples = 2\nvalue = [0, 0, 2, 0, 0, 0, 0, 0, 0, 0]\nclass = 2", fillcolor="#7be539"] ;
441 -> 443 ;
444 [label="21 <= 15.5\nentropy = 0.126\nsamples = 220\nvalue = [0, 1, 1, 0, 0, 0, 0, 0, 217, 1]\nclass = 8", fillcolor="#e53cc1"] ;
434 -> 444 ;
445 [label="entropy = 0.0\nsamples = 205\nvalue = [0, 0, 0, 0, 0, 0, 0, 0, 205, 0]\nclass = 8", fillcolor="#e539c0"] ;
444 -> 445 ;
446 [label="35 <= 1.5\nentropy = 1.039\nsamples = 15\nvalue = [0, 1, 1, 0, 0, 0, 0, 0, 12, 1]\nclass = 8", fillcolor="#eb63ce"] ;
444 -> 446 ;
447 [label="59 <= 11.5\nentropy = 1.0\nsamples = 2\nvalue = [0, 0, 1, 0, 0, 0, 0, 0, 0, 1]\nclass = 2", fillcolor="#ffffff"] ;
446 -> 447 ;
448 [label="entropy = 0.0\nsamples = 1\nvalue = [0, 0, 0, 0, 0, 0, 0, 0, 0, 1]\nclass = 9", fillcolor="#e53958"] ;
447 -> 448 ;
449 [label="entropy = 0.0\nsamples = 1\nvalue = [0, 0, 1, 0, 0, 0, 0, 0, 0, 0]\nclass = 2", fillcolor="#7be539"] ;
447 -> 449 ;
450 [label="42 <= 7.0\nentropy = 0.391\nsamples = 13\nvalue = [0, 1, 0, 0, 0, 0, 0, 0, 12, 0]\nclass = 8", fillcolor="#e749c5"] ;
446 -> 450 ;
451 [label="entropy = 0.0\nsamples = 12\nvalue = [0, 0, 0, 0, 0, 0, 0, 0, 12, 0]\nclass = 8", fillcolor="#e539c0"] ;
450 -> 451 ;
452 [label="entropy = 0.0\nsamples = 1\nvalue = [0, 1, 0, 0, 0, 0, 0, 0, 0, 0]\nclass = 1", fillcolor="#e2e539"] ;
450 -> 452 ;
453 [label="44 <= 15.5\nentropy = 0.877\nsamples = 120\nvalue = [0, 89, 0, 0, 1, 0, 0, 0, 30, 0]\nclass = 1", fillcolor="#ecee7d"] ;
395 -> 453 ;
454 [label="14 <= 0.5\nentropy = 0.235\nsamples = 26\nvalue = [0, 0, 0, 0, 1, 0, 0, 0, 25, 0]\nclass = 8", fillcolor="#e641c3"] ;
453 -> 454 ;
455 [label="entropy = 0.0\nsamples = 1\nvalue = [0, 0, 0, 0, 1, 0, 0, 0, 0, 0]\nclass = 4", fillcolor="#39e5c5"] ;
454 -> 455 ;
456 [label="entropy = 0.0\nsamples = 25\nvalue = [0, 0, 0, 0, 0, 0, 0, 0, 25, 0]\nclass = 8", fillcolor="#e539c0"] ;
454 -> 456 ;
457 [label="61 <= 5.5\nentropy = 0.3\nsamples = 94\nvalue = [0, 89, 0, 0, 0, 0, 0, 0, 5, 0]\nclass = 1", fillcolor="#e4e644"] ;
453 -> 457 ;
458 [label="51 <= 12.5\nentropy = 0.811\nsamples = 4\nvalue = [0, 1, 0, 0, 0, 0, 0, 0, 3, 0]\nclass = 8", fillcolor="#ee7bd5"] ;
457 -> 458 ;
459 [label="entropy = 0.0\nsamples = 1\nvalue = [0, 1, 0, 0, 0, 0, 0, 0, 0, 0]\nclass = 1", fillcolor="#e2e539"] ;
458 -> 459 ;
460 [label="entropy = 0.0\nsamples = 3\nvalue = [0, 0, 0, 0, 0, 0, 0, 0, 3, 0]\nclass = 8", fillcolor="#e539c0"] ;
458 -> 460 ;
461 [label="22 <= 13.5\nentropy = 0.154\nsamples = 90\nvalue = [0, 88, 0, 0, 0, 0, 0, 0, 2, 0]\nclass = 1", fillcolor="#e3e63d"] ;
457 -> 461 ;
462 [label="entropy = 0.0\nsamples = 75\nvalue = [0, 75, 0, 0, 0, 0, 0, 0, 0, 0]\nclass = 1", fillcolor="#e2e539"] ;
461 -> 462 ;
463 [label="38 <= 3.0\nentropy = 0.567\nsamples = 15\nvalue = [0, 13, 0, 0, 0, 0, 0, 0, 2, 0]\nclass = 1", fillcolor="#e6e957"] ;
461 -> 463 ;
464 [label="entropy = 0.0\nsamples = 2\nvalue = [0, 0, 0, 0, 0, 0, 0, 0, 2, 0]\nclass = 8", fillcolor="#e539c0"] ;
463 -> 464 ;
465 [label="entropy = 0.0\nsamples = 13\nvalue = [0, 13, 0, 0, 0, 0, 0, 0, 0, 0]\nclass = 1", fillcolor="#e2e539"] ;
463 -> 465 ;
466 [label="20 <= 6.5\nentropy = 1.854\nsamples = 339\nvalue = [19, 2, 0, 9, 172, 1, 4, 100, 32, 0]\nclass = 4", fillcolor="#c3f7ee"] ;
394 -> 466 ;
467 [label="54 <= 6.0\nentropy = 1.496\nsamples = 139\nvalue = [8, 1, 0, 6, 6, 0, 1, 97, 20, 0]\nclass = 7", fillcolor="#c37fee"] ;
466 -> 467 ;
468 [label="26 <= 3.0\nentropy = 0.318\nsamples = 102\nvalue = [1, 0, 0, 0, 4, 0, 0, 97, 0, 0]\nclass = 7", fillcolor="#a843e6"] ;
467 -> 468 ;
469 [label="entropy = 0.0\nsamples = 93\nvalue = [0, 0, 0, 0, 0, 0, 0, 93, 0, 0]\nclass = 7", fillcolor="#a339e5"] ;
468 -> 469 ;
470 [label="34 <= 9.0\nentropy = 1.392\nsamples = 9\nvalue = [1, 0, 0, 0, 4, 0, 0, 4, 0, 0]\nclass = 4", fillcolor="#ffffff"] ;
468 -> 470 ;
471 [label="50 <= 2.5\nentropy = 0.722\nsamples = 5\nvalue = [1, 0, 0, 0, 0, 0, 0, 4, 0, 0]\nclass = 7", fillcolor="#ba6aec"] ;
470 -> 471 ;
472 [label="entropy = 0.0\nsamples = 4\nvalue = [0, 0, 0, 0, 0, 0, 0, 4, 0, 0]\nclass = 7", fillcolor="#a339e5"] ;
471 -> 472 ;
473 [label="entropy = 0.0\nsamples = 1\nvalue = [1, 0, 0, 0, 0, 0, 0, 0, 0, 0]\nclass = 0", fillcolor="#e58139"] ;
471 -> 473 ;
474 [label="entropy = 0.0\nsamples = 4\nvalue = [0, 0, 0, 0, 4, 0, 0, 0, 0, 0]\nclass = 4", fillcolor="#39e5c5"] ;
470 -> 474 ;
475 [label="36 <= 4.5\nentropy = 1.869\nsamples = 37\nvalue = [7, 1, 0, 6, 2, 0, 1, 0, 20, 0]\nclass = 8", fillcolor="#f4a9e4"] ;
467 -> 475 ;
476 [label="29 <= 10.5\nentropy = 0.946\nsamples = 11\nvalue = [7, 0, 0, 4, 0, 0, 0, 0, 0, 0]\nclass = 0", fillcolor="#f4c9aa"] ;
475 -> 476 ;
477 [label="entropy = 0.0\nsamples = 7\nvalue = [7, 0, 0, 0, 0, 0, 0, 0, 0, 0]\nclass = 0", fillcolor="#e58139"] ;
476 -> 477 ;
478 [label="entropy = 0.0\nsamples = 4\nvalue = [0, 0, 0, 4, 0, 0, 0, 0, 0, 0]\nclass = 3", fillcolor="#39e55e"] ;
476 -> 478 ;
479 [label="4 <= 7.0\nentropy = 1.222\nsamples = 26\nvalue = [0, 1, 0, 2, 2, 0, 1, 0, 20, 0]\nclass = 8", fillcolor="#ec6bd0"] ;
475 -> 479 ;
480 [label="46 <= 15.5\nentropy = 1.5\nsamples = 4\nvalue = [0, 1, 0, 0, 2, 0, 1, 0, 0, 0]\nclass = 4", fillcolor="#bdf6ec"] ;
479 -> 480 ;
481 [label="entropy = 0.0\nsamples = 2\nvalue = [0, 0, 0, 0, 2, 0, 0, 0, 0, 0]\nclass = 4", fillcolor="#39e5c5"] ;
480 -> 481 ;
482 [label="13 <= 8.0\nentropy = 1.0\nsamples = 2\nvalue = [0, 1, 0, 0, 0, 0, 1, 0, 0, 0]\nclass = 1", fillcolor="#ffffff"] ;
480 -> 482 ;
483 [label="entropy = 0.0\nsamples = 1\nvalue = [0, 0, 0, 0, 0, 0, 1, 0, 0, 0]\nclass = 6", fillcolor="#3c39e5"] ;
482 -> 483 ;
484 [label="entropy = 0.0\nsamples = 1\nvalue = [0, 1, 0, 0, 0, 0, 0, 0, 0, 0]\nclass = 1", fillcolor="#e2e539"] ;
482 -> 484 ;
485 [label="22 <= 9.5\nentropy = 0.439\nsamples = 22\nvalue = [0, 0, 0, 2, 0, 0, 0, 0, 20, 0]\nclass = 8", fillcolor="#e84dc6"] ;
479 -> 485 ;
486 [label="6 <= 5.5\nentropy = 0.971\nsamples = 5\nvalue = [0, 0, 0, 2, 0, 0, 0, 0, 3, 0]\nclass = 8", fillcolor="#f6bdea"] ;
485 -> 486 ;
487 [label="entropy = 0.0\nsamples = 3\nvalue = [0, 0, 0, 0, 0, 0, 0, 0, 3, 0]\nclass = 8", fillcolor="#e539c0"] ;
486 -> 487 ;
488 [label="entropy = 0.0\nsamples = 2\nvalue = [0, 0, 0, 2, 0, 0, 0, 0, 0, 0]\nclass = 3", fillcolor="#39e55e"] ;
486 -> 488 ;
489 [label="entropy = 0.0\nsamples = 17\nvalue = [0, 0, 0, 0, 0, 0, 0, 0, 17, 0]\nclass = 8", fillcolor="#e539c0"] ;
485 -> 489 ;
490 [label="45 <= 9.0\nentropy = 1.046\nsamples = 200\nvalue = [11, 1, 0, 3, 166, 1, 3, 3, 12, 0]\nclass = 4", fillcolor="#5deacf"] ;
466 -> 490 ;
491 [label="36 <= 9.0\nentropy = 2.082\nsamples = 27\nvalue = [7, 0, 0, 3, 1, 1, 3, 0, 12, 0]\nclass = 8", fillcolor="#f8ceef"] ;
490 -> 491 ;
492 [label="12 <= 15.5\nentropy = 1.551\nsamples = 12\nvalue = [7, 0, 0, 3, 0, 1, 1, 0, 0, 0]\nclass = 0", fillcolor="#f3c7a7"] ;
491 -> 492 ;
493 [label="20 <= 10.5\nentropy = 1.371\nsamples = 5\nvalue = [0, 0, 0, 3, 0, 1, 1, 0, 0, 0]\nclass = 3", fillcolor="#9cf2ae"] ;
492 -> 493 ;
494 [label="entropy = 0.0\nsamples = 3\nvalue = [0, 0, 0, 3, 0, 0, 0, 0, 0, 0]\nclass = 3", fillcolor="#39e55e"] ;
493 -> 494 ;
495 [label="43 <= 12.5\nentropy = 1.0\nsamples = 2\nvalue = [0, 0, 0, 0, 0, 1, 1, 0, 0, 0]\nclass = 5", fillcolor="#ffffff"] ;
493 -> 495 ;
496 [label="entropy = 0.0\nsamples = 1\nvalue = [0, 0, 0, 0, 0, 1, 0, 0, 0, 0]\nclass = 5", fillcolor="#399de5"] ;
495 -> 496 ;
497 [label="entropy = 0.0\nsamples = 1\nvalue = [0, 0, 0, 0, 0, 0, 1, 0, 0, 0]\nclass = 6", fillcolor="#3c39e5"] ;
495 -> 497 ;
498 [label="entropy = 0.0\nsamples = 7\nvalue = [7, 0, 0, 0, 0, 0, 0, 0, 0, 0]\nclass = 0", fillcolor="#e58139"] ;
492 -> 498 ;
499 [label="39 <= 5.0\nentropy = 0.906\nsamples = 15\nvalue = [0, 0, 0, 0, 1, 0, 2, 0, 12, 0]\nclass = 8", fillcolor="#eb67cf"] ;
491 -> 499 ;
500 [label="entropy = 0.0\nsamples = 12\nvalue = [0, 0, 0, 0, 0, 0, 0, 0, 12, 0]\nclass = 8", fillcolor="#e539c0"] ;
499 -> 500 ;
501 [label="14 <= 1.5\nentropy = 0.918\nsamples = 3\nvalue = [0, 0, 0, 0, 1, 0, 2, 0, 0, 0]\nclass = 6", fillcolor="#9e9cf2"] ;
499 -> 501 ;
502 [label="entropy = 0.0\nsamples = 1\nvalue = [0, 0, 0, 0, 1, 0, 0, 0, 0, 0]\nclass = 4", fillcolor="#39e5c5"] ;
501 -> 502 ;
503 [label="entropy = 0.0\nsamples = 2\nvalue = [0, 0, 0, 0, 0, 0, 2, 0, 0, 0]\nclass = 6", fillcolor="#3c39e5"] ;
501 -> 503 ;
504 [label="14 <= 10.0\nentropy = 0.335\nsamples = 173\nvalue = [4, 1, 0, 0, 165, 0, 0, 3, 0, 0]\nclass = 4", fillcolor="#42e6c8"] ;
490 -> 504 ;
505 [label="53 <= 5.5\nentropy = 0.056\nsamples = 155\nvalue = [0, 0, 0, 0, 154, 0, 0, 1, 0, 0]\nclass = 4", fillcolor="#3ae5c5"] ;
504 -> 505 ;
506 [label="entropy = 0.0\nsamples = 1\nvalue = [0, 0, 0, 0, 0, 0, 0, 1, 0, 0]\nclass = 7", fillcolor="#a339e5"] ;
505 -> 506 ;
507 [label="entropy = 0.0\nsamples = 154\nvalue = [0, 0, 0, 0, 154, 0, 0, 0, 0, 0]\nclass = 4", fillcolor="#39e5c5"] ;
505 -> 507 ;
508 [label="29 <= 2.0\nentropy = 1.5\nsamples = 18\nvalue = [4, 1, 0, 0, 11, 0, 0, 2, 0, 0]\nclass = 4", fillcolor="#9cf2e2"] ;
504 -> 508 ;
509 [label="entropy = 0.0\nsamples = 4\nvalue = [4, 0, 0, 0, 0, 0, 0, 0, 0, 0]\nclass = 0", fillcolor="#e58139"] ;
508 -> 509 ;
510 [label="34 <= 1.0\nentropy = 0.946\nsamples = 14\nvalue = [0, 1, 0, 0, 11, 0, 0, 2, 0, 0]\nclass = 4", fillcolor="#6becd4"] ;
508 -> 510 ;
511 [label="52 <= 15.5\nentropy = 0.918\nsamples = 3\nvalue = [0, 1, 0, 0, 0, 0, 0, 2, 0, 0]\nclass = 7", fillcolor="#d19cf2"] ;
510 -> 511 ;
512 [label="entropy = 0.0\nsamples = 2\nvalue = [0, 0, 0, 0, 0, 0, 0, 2, 0, 0]\nclass = 7", fillcolor="#a339e5"] ;
511 -> 512 ;
513 [label="entropy = 0.0\nsamples = 1\nvalue = [0, 1, 0, 0, 0, 0, 0, 0, 0, 0]\nclass = 1", fillcolor="#e2e539"] ;
511 -> 513 ;
514 [label="entropy = 0.0\nsamples = 11\nvalue = [0, 0, 0, 0, 11, 0, 0, 0, 0, 0]\nclass = 4", fillcolor="#39e5c5"] ;
510 -> 514 ;
}